{"learner":{"attributes":{"scikit_learn":"{\"_estimator_type\": \"classifier\"}"},"feature_names":[],"feature_types":[],"gradient_booster":{"model":{"gbtree_model_param":{"num_parallel_tree":"1","num_trees":"2820"},"iteration_indptr":[0,6,12,18,24,30,36,42,48,54,60,66,72,78,84,90,96,102,108,114,120,126,132,138,144,150,156,162,168,174,180,186,192,198,204,210,216,222,228,234,240,246,252,258,264,270,276,282,288,294,300,306,312,318,324,330,336,342,348,354,360,366,372,378,384,390,396,402,408,414,420,426,432,438,444,450,456,462,468,474,480,486,492,498,504,510,516,522,528,534,540,546,552,558,564,570,576,582,588,594,600,606,612,618,624,630,636,642,648,654,660,666,672,678,684,690,696,702,708,714,720,726,732,738,744,750,756,762,768,774,780,786,792,798,804,810,816,822,828,834,840,846,852,858,864,870,876,882,888,894,900,906,912,918,924,930,936,942,948,954,960,966,972,978,984,990,996,1002,1008,1014,1020,1026,1032,1038,1044,1050,1056,1062,1068,1074,1080,1086,1092,1098,1104,1110,1116,1122,1128,1134,1140,1146,1152,1158,1164,1170,1176,1182,1188,1194,1200,1206,1212,1218,1224,1230,1236,1242,1248,1254,1260,1266,1272,1278,1284,1290,1296,1302,1308,1314,1320,1326,1332,1338,1344,1350,1356,1362,1368,1374,1380,1386,1392,1398,1404,1410,1416,1422,1428,1434,1440,1446,1452,1458,1464,1470,1476,1482,1488,1494,1500,1506,1512,1518,1524,1530,1536,1542,1548,1554,1560,1566,1572,1578,1584,1590,1596,1602,1608,1614,1620,1626,1632,1638,1644,1650,1656,1662,1668,1674,1680,1686,1692,1698,1704,1710,1716,1722,1728,1734,1740,1746,1752,1758,1764,1770,1776,1782,1788,1794,1800,1806,1812,1818,1824,1830,1836,1842,1848,1854,1860,1866,1872,1878,1884,1890,1896,1902,1908,1914,1920,1926,1932,1938,1944,1950,1956,1962,1968,1974,1980,1986,1992,1998,2004,2010,2016,2022,2028,2034,2040,2046,2052,2058,2064,2070,2076,2082,2088,2094,2100,2106,2112,2118,2124,2130,2136,2142,2148,2154,2160,2166,2172,2178,2184,2190,2196,2202,2208,2214,2220,2226,2232,2238,2244,2250,2256,2262,2268,2274,2280,2286,2292,2298,2304,2310,2316,2322,2328,2334,2340,2346,2352,2358,2364,2370,2376,2382,2388,2394,2400,2406,2412,2418,2424,2430,2436,2442,2448,2454,2460,2466,2472,2478,2484,2490,2496,2502,2508,2514,2520,2526,2532,2538,2544,2550,2556,2562,2568,2574,2580,2586,2592,2598,2604,2610,2616,2622,2628,2634,2640,2646,2652,2658,2664,2670,2676,2682,2688,2694,2700,2706,2712,2718,2724,2730,2736,2742,2748,2754,2760,2766,2772,2778,2784,2790,2796,2802,2808,2814,2820],"tree_info":[0,1,2,3,4,5,0,1,2,3,4,5,0,1,2,3,4,5,0,1,2,3,4,5,0,1,2,3,4,5,0,1,2,3,4,5,0,1,2,3,4,5,0,1,2,3,4,5,0,1,2,3,4,5,0,1,2,3,4,5,0,1,2,3,4,5,0,1,2,3,4,5,0,1,2,3,4,5,0,1,2,3,4,5,0,1,2,3,4,5,0,1,2,3,4,5,0,1,2,3,4,5,0,1,2,3,4,5,0,1,2,3,4,5,0,1,2,3,4,5,0,1,2,3,4,5,0,1,2,3,4,5,0,1,2,3,4,5,0,1,2,3,4,5,0,1,2,3,4,5,0,1,2,3,4,5,0,1,2,3,4,5,0,1,2,3,4,5,0,1,2,3,4,5,0,1,2,3,4,5,0,1,2,3,4,5,0,1,2,3,4,5,0,1,2,3,4,5,0,1,2,3,4,5,0,1,2,3,4,5,0,1,2,3,4,5,0,1,2,3,4,5,0,1,2,3,4,5,0,1,2,3,4,5,0,1,2,3,4,5,0,1,2,3,4,5,0,1,2,3,4,5,0,1,2,3,4,5,0,1,2,3,4,5,0,1,2,3,4,5,0,1,2,3,4,5,0,1,2,3,4,5,0,1,2,3,4,5,0,1,2,3,4,5,0,1,2,3,4,5,0,1,2,3,4,5,0,1,2,3,4,5,0,1,2,3,4,5,0,1,2,3,4,5,0,1,2,3,4,5,0,1,2,3,4,5,0,1,2,3,4,5,0,1,2,3,4,5,0,1,2,3,4,5,0,1,2,3,4,5,0,1,2,3,4,5,0,1,2,3,4,5,0,1,2,3,4,5,0,1,2,3,4,5,0,1,2,3,4,5,0,1,2,3,4,5,0,1,2,3,4,5,0,1,2,3,4,5,0,1,2,3,4,5,0,1,2,3,4,5,0,1,2,3,4,5,0,1,2,3,4,5,0,1,2,3,4,5,0,1,2,3,4,5,0,1,2,3,4,5,0,1,2,3,4,5,0,1,2,3,4,5,0,1,2,3,4,5,0,1,2,3,4,5,0,1,2,3,4,5,0,1,2,3,4,5,0,1,2,3,4,5,0,1,2,3,4,5,0,1,2,3,4,5,0,1,2,3,4,5,0,1,2,3,4,5,0,1,2,3,4,5,0,1,2,3,4,5,0,1,2,3,4,5,0,1,2,3,4,5,0,1,2,3,4,5,0,1,2,3,4,5,0,1,2,3,4,5,0,1,2,3,4,5,0,1,2,3,4,5,0,1,2,3,4,5,0,1,2,3,4,5,0,1,2,3,4,5,0,1,2,3,4,5,0,1,2,3,4,5,0,1,2,3,4,5,0,1,2,3,4,5,0,1,2,3,4,5,0,1,2,3,4,5,0,1,2,3,4,5,0,1,2,3,4,5,0,1,2,3,4,5,0,1,2,3,4,5,0,1,2,3,4,5,0,1,2,3,4,5,0,1,2,3,4,5,0,1,2,3,4,5,0,1,2,3,4,5,0,1,2,3,4,5,0,1,2,3,4,5,0,1,2,3,4,5,0,1,2,3,4,5,0,1,2,3,4,5,0,1,2,3,4,5,0,1,2,3,4,5,0,1,2,3,4,5,0,1,2,3,4,5,0,1,2,3,4,5,0,1,2,3,4,5,0,1,2,3,4,5,0,1,2,3,4,5,0,1,2,3,4,5,0,1,2,3,4,5,0,1,2,3,4,5,0,1,2,3,4,5,0,1,2,3,4,5,0,1,2,3,4,5,0,1,2,3,4,5,0,1,2,3,4,5,0,1,2,3,4,5,0,1,2,3,4,5,0,1,2,3,4,5,0,1,2,3,4,5,0,1,2,3,4,5,0,1,2,3,4,5,0,1,2,3,4,5,0,1,2,3,4,5,0,1,2,3,4,5,0,1,2,3,4,5,0,1,2,3,4,5,0,1,2,3,4,5,0,1,2,3,4,5,0,1,2,3,4,5,0,1,2,3,4,5,0,1,2,3,4,5,0,1,2,3,4,5,0,1,2,3,4,5,0,1,2,3,4,5,0,1,2,3,4,5,0,1,2,3,4,5,0,1,2,3,4,5,0,1,2,3,4,5,0,1,2,3,4,5,0,1,2,3,4,5,0,1,2,3,4,5,0,1,2,3,4,5,0,1,2,3,4,5,0,1,2,3,4,5,0,1,2,3,4,5,0,1,2,3,4,5,0,1,2,3,4,5,0,1,2,3,4,5,0,1,2,3,4,5,0,1,2,3,4,5,0,1,2,3,4,5,0,1,2,3,4,5,0,1,2,3,4,5,0,1,2,3,4,5,0,1,2,3,4,5,0,1,2,3,4,5,0,1,2,3,4,5,0,1,2,3,4,5,0,1,2,3,4,5,0,1,2,3,4,5,0,1,2,3,4,5,0,1,2,3,4,5,0,1,2,3,4,5,0,1,2,3,4,5,0,1,2,3,4,5,0,1,2,3,4,5,0,1,2,3,4,5,0,1,2,3,4,5,0,1,2,3,4,5,0,1,2,3,4,5,0,1,2,3,4,5,0,1,2,3,4,5,0,1,2,3,4,5,0,1,2,3,4,5,0,1,2,3,4,5,0,1,2,3,4,5,0,1,2,3,4,5,0,1,2,3,4,5,0,1,2,3,4,5,0,1,2,3,4,5,0,1,2,3,4,5,0,1,2,3,4,5,0,1,2,3,4,5,0,1,2,3,4,5,0,1,2,3,4,5,0,1,2,3,4,5,0,1,2,3,4,5,0,1,2,3,4,5,0,1,2,3,4,5,0,1,2,3,4,5,0,1,2,3,4,5,0,1,2,3,4,5,0,1,2,3,4,5,0,1,2,3,4,5,0,1,2,3,4,5,0,1,2,3,4,5,0,1,2,3,4,5,0,1,2,3,4,5,0,1,2,3,4,5,0,1,2,3,4,5,0,1,2,3,4,5,0,1,2,3,4,5,0,1,2,3,4,5,0,1,2,3,4,5,0,1,2,3,4,5,0,1,2,3,4,5,0,1,2,3,4,5,0,1,2,3,4,5,0,1,2,3,4,5,0,1,2,3,4,5,0,1,2,3,4,5,0,1,2,3,4,5,0,1,2,3,4,5,0,1,2,3,4,5,0,1,2,3,4,5,0,1,2,3,4,5,0,1,2,3,4,5,0,1,2,3,4,5,0,1,2,3,4,5,0,1,2,3,4,5,0,1,2,3,4,5,0,1,2,3,4,5,0,1,2,3,4,5,0,1,2,3,4,5,0,1,2,3,4,5,0,1,2,3,4,5,0,1,2,3,4,5,0,1,2,3,4,5,0,1,2,3,4,5,0,1,2,3,4,5,0,1,2,3,4,5,0,1,2,3,4,5,0,1,2,3,4,5,0,1,2,3,4,5,0,1,2,3,4,5,0,1,2,3,4,5,0,1,2,3,4,5,0,1,2,3,4,5,0,1,2,3,4,5,0,1,2,3,4,5,0,1,2,3,4,5,0,1,2,3,4,5,0,1,2,3,4,5,0,1,2,3,4,5,0,1,2,3,4,5,0,1,2,3,4,5,0,1,2,3,4,5,0,1,2,3,4,5,0,1,2,3,4,5,0,1,2,3,4,5,0,1,2,3,4,5,0,1,2,3,4,5,0,1,2,3,4,5,0,1,2,3,4,5,0,1,2,3,4,5,0,1,2,3,4,5,0,1,2,3,4,5,0,1,2,3,4,5,0,1,2,3,4,5,0,1,2,3,4,5,0,1,2,3,4,5,0,1,2,3,4,5,0,1,2,3,4,5,0,1,2,3,4,5,0,1,2,3,4,5,0,1,2,3,4,5,0,1,2,3,4,5,0,1,2,3,4,5,0,1,2,3,4,5,0,1,2,3,4,5,0,1,2,3,4,5,0,1,2,3,4,5,0,1,2,3,4,5,0,1,2,3,4,5,0,1,2,3,4,5,0,1,2,3,4,5,0,1,2,3,4,5,0,1,2,3,4,5,0,1,2,3,4,5,0,1,2,3,4,5,0,1,2,3,4,5,0,1,2,3,4,5,0,1,2,3,4,5,0,1,2,3,4,5,0,1,2,3,4,5,0,1,2,3,4,5,0,1,2,3,4,5,0,1,2,3,4,5,0,1,2,3,4,5,0,1,2,3,4,5,0,1,2,3,4,5,0,1,2,3,4,5,0,1,2,3,4,5,0,1,2,3,4,5,0,1,2,3,4,5,0,1,2,3,4,5,0,1,2,3,4,5,0,1,2,3,4,5,0,1,2,3,4,5,0,1,2,3,4,5,0,1,2,3,4,5,0,1,2,3,4,5,0,1,2,3,4,5,0,1,2,3,4,5,0,1,2,3,4,5,0,1,2,3,4,5,0,1,2,3,4,5,0,1,2,3,4,5,0,1,2,3,4,5,0,1,2,3,4,5,0,1,2,3,4,5,0,1,2,3,4,5,0,1,2,3,4,5,0,1,2,3,4,5,0,1,2,3,4,5,0,1,2,3,4,5,0,1,2,3,4,5,0,1,2,3,4,5,0,1,2,3,4,5,0,1,2,3,4,5,0,1,2,3,4,5,0,1,2,3,4,5,0,1,2,3,4,5,0,1,2,3,4,5,0,1,2,3,4,5,0,1,2,3,4,5,0,1,2,3,4,5,0,1,2,3,4,5,0,1,2,3,4,5,0,1,2,3,4,5,0,1,2,3,4,5,0,1,2,3,4,5,0,1,2,3,4,5,0,1,2,3,4,5,0,1,2,3,4,5,0,1,2,3,4,5,0,1,2,3,4,5,0,1,2,3,4,5,0,1,2,3,4,5,0,1,2,3,4,5,0,1,2,3,4,5,0,1,2,3,4,5,0,1,2,3,4,5,0,1,2,3,4,5,0,1,2,3,4,5,0,1,2,3,4,5,0,1,2,3,4,5,0,1,2,3,4,5,0,1,2,3,4,5,0,1,2,3,4,5,0,1,2,3,4,5,0,1,2,3,4,5,0,1,2,3,4,5,0,1,2,3,4,5,0,1,2,3,4,5,0,1,2,3,4,5,0,1,2,3,4,5,0,1,2,3,4,5,0,1,2,3,4,5,0,1,2,3,4,5,0,1,2,3,4,5,0,1,2,3,4,5,0,1,2,3,4,5,0,1,2,3,4,5,0,1,2,3,4,5,0,1,2,3,4,5,0,1,2,3,4,5,0,1,2,3,4,5,0,1,2,3,4,5,0,1,2,3,4,5,0,1,2,3,4,5,0,1,2,3,4,5,0,1,2,3,4,5,0,1,2,3,4,5,0,1,2,3,4,5,0,1,2,3,4,5,0,1,2,3,4,5,0,1,2,3,4,5,0,1,2,3,4,5,0,1,2,3,4,5,0,1,2,3,4,5,0,1,2,3,4,5,0,1,2,3,4,5,0,1,2,3,4,5,0,1,2,3,4,5,0,1,2,3,4,5,0,1,2,3,4,5,0,1,2,3,4,5,0,1,2,3,4,5,0,1,2,3,4,5,0,1,2,3,4,5,0,1,2,3,4,5,0,1,2,3,4,5,0,1,2,3,4,5,0,1,2,3,4,5,0,1,2,3,4,5,0,1,2,3,4,5,0,1,2,3,4,5,0,1,2,3,4,5,0,1,2,3,4,5,0,1,2,3,4,5,0,1,2,3,4,5,0,1,2,3,4,5,0,1,2,3,4,5,0,1,2,3,4,5,0,1,2,3,4,5,0,1,2,3,4,5,0,1,2,3,4,5,0,1,2,3,4,5,0,1,2,3,4,5,0,1,2,3,4,5,0,1,2,3,4,5,0,1,2,3,4,5,0,1,2,3,4,5,0,1,2,3,4,5,0,1,2,3,4,5,0,1,2,3,4,5,0,1,2,3,4,5,0,1,2,3,4,5,0,1,2,3,4,5,0,1,2,3,4,5,0,1,2,3,4,5,0,1,2,3,4,5,0,1,2,3,4,5,0,1,2,3,4,5,0,1,2,3,4,5,0,1,2,3,4,5,0,1,2,3,4,5,0,1,2,3,4,5,0,1,2,3,4,5,0,1,2,3,4,5,0,1,2,3,4,5,0,1,2,3,4,5,0,1,2,3,4,5,0,1,2,3,4,5,0,1,2,3,4,5,0,1,2,3,4,5,0,1,2,3,4,5,0,1,2,3,4,5,0,1,2,3,4,5,0,1,2,3,4,5,0,1,2,3,4,5,0,1,2,3,4,5,0,1,2,3,4,5,0,1,2,3,4,5,0,1,2,3,4,5,0,1,2,3,4,5,0,1,2,3,4,5,0,1,2,3,4,5,0,1,2,3,4,5,0,1,2,3,4,5],"trees":[{"base_weights":[2.8300554E-1,-4.12541E-2,1.2697603E0,-2.6293665E-1,2.348413E-1,7.038336E-1,1.7854489E0,3.7559872E-3,-5.599826E-2,8.188967E-2,2.0967918E-3,1.5710223E-1,4.169811E-2,2.7890787E-1,9.424276E-2],"categories":[],"categories_nodes":[],"categories_segments":[],"categories_sizes":[],"default_left":[1,1,0,0,0,0,0,0,0,0,0,0,0,0,0],"id":0,"left_children":[1,3,5,7,9,11,13,-1,-1,-1,-1,-1,-1,-1,-1],"loss_changes":[1.8747927E3,2.7017215E2,4.202063E2,1.0947148E2,1.6136371E2,1.2633002E2,2.3450952E2,0E0,0E0,0E0,0E0,0E0,0E0,0E0,0E0],"parents":[2147483647,0,0,1,1,2,2,3,3,4,4,5,5,6,6],"right_children":[2,4,6,8,10,12,14,-1,-1,-1,-1,-1,-1,-1,-1],"split_conditions":[4.41E0,2.79E0,1.0470078E1,1.1E0,1.35E0,4.6E-1,3E-1,3.7559872E-3,-5.599826E-2,8.188967E-2,2.0967918E-3,1.5710223E-1,4.169811E-2,2.7890787E-1,9.424276E-2],"split_indices":[1506,455,9,153,153,238,71,0,0,0,0,0,0,0,0],"split_type":[0,0,0,0,0,0,0,0,0,0,0,0,0,0,0],"sum_hessian":[5.856842E3,4.409809E3,1.4470328E3,2.4459834E3,1.9638256E3,6.923637E2,7.5466907E2,8.46201E2,1.5997825E3,7.2382227E2,1.2400033E3,3.1542773E2,3.7693597E2,5.940142E2,1.6065486E2],"tree_param":{"num_deleted":"0","num_feature":"1998","num_nodes":"15","size_leaf_vector":"1"}},{"base_weights":[-1.12735346E-1,-3.0926487E-1,1.1096842E-1,-3.5862327E-1,1.3264371E-1,3.292607E-1,-3.7537506E-1,-5.6648917E-2,-1.5249832E-2,-1.2219865E-2,8.085104E-2,-1.8356292E-3,9.357061E-2,-7.182776E-3,-6.566652E-2],"categories":[],"categories_nodes":[],"categories_segments":[],"categories_sizes":[],"default_left":[0,0,0,1,1,1,0,0,0,0,0,0,0,0,0],"id":1,"left_children":[1,3,5,7,9,11,13,-1,-1,-1,-1,-1,-1,-1,-1],"loss_changes":[2.5876895E2,6.843826E1,2.9258798E2,4.3324677E1,3.3280796E1,2.3927563E2,3.1061615E1,0E0,0E0,0E0,0E0,0E0,0E0,0E0,0E0],"parents":[2147483647,0,0,1,1,2,2,3,3,4,4,5,5,6,6],"right_children":[2,4,6,8,10,12,14,-1,-1,-1,-1,-1,-1,-1,-1],"split_conditions":[1.1165982E-1,1.1989874E-1,1.3946003E1,3.6E-1,5.6E-1,1.27E0,6.1639013E0,-5.6648917E-2,-1.5249832E-2,-1.2219865E-2,8.085104E-2,-1.8356292E-3,9.357061E-2,-7.182776E-3,-6.566652E-2],"split_indices":[20,1511,152,231,917,240,126,0,0,0,0,0,0,0,0],"split_type":[0,0,0,0,0,0,0,0,0,0,0,0,0,0,0],"sum_hessian":[5.8820024E3,3.1307373E3,2.7512654E3,2.8165557E3,3.1418155E2,1.8994233E3,8.51842E2,2.2406384E3,5.759173E2,2.1393405E2,1.002475E2,9.828865E2,9.165369E2,2.2241447E2,6.294275E2],"tree_param":{"num_deleted":"0","num_feature":"1998","num_nodes":"15","size_leaf_vector":"1"}},{"base_weights":[-2.239133E-1,-3.4668937E-1,1.519851E0,-4.2182335E-1,2.2119471E-1,1.8859133E0,3.006035E-2,-6.230085E-2,5.4441653E-3,1.3505494E-3,1.4310387E-1,2.704565E-1,5.1942825E-2,1.5049917E-1,-4.5816958E-2],"categories":[],"categories_nodes":[],"categories_segments":[],"categories_sizes":[],"default_left":[0,0,1,1,0,0,0,0,0,0,0,0,0,0,0],"id":2,"left_children":[1,3,5,7,9,11,13,-1,-1,-1,-1,-1,-1,-1,-1],"loss_changes":[1.2522767E3,2.3322046E2,2.09729E2,9.30282E1,1.1388186E2,5.679248E1,3.2402264E1,0E0,0E0,0E0,0E0,0E0,0E0,0E0,0E0],"parents":[2147483647,0,0,1,1,2,2,3,3,4,4,5,5,6,6],"right_children":[2,4,6,8,10,12,14,-1,-1,-1,-1,-1,-1,-1,-1],"split_conditions":[6.9414306E-1,5.850476E-1,1.436E1,4.21E0,5.14E0,5.280975E0,1.211E0,-6.230085E-2,5.4441653E-3,1.3505494E-3,1.4310387E-1,2.704565E-1,5.1942825E-2,1.5049917E-1,-4.5816958E-2],"split_indices":[56,56,508,364,24,121,1505,0,0,0,0,0,0,0,0],"split_type":[0,0,0,0,0,0,0,0,0,0,0,0,0,0,0],"sum_hessian":[5.8417026E3,5.459079E3,3.8262357E2,4.8217026E3,6.3737665E2,3.066877E2,7.593583E1,4.4228306E3,3.9887222E2,5.1153006E2,1.2584656E2,2.8217947E2,2.4508251E1,1.816985E1,5.776598E1],"tree_param":{"num_deleted":"0","num_feature":"1998","num_nodes":"15","size_leaf_vector":"1"}},{"base_weights":[-2.877685E-1,-1.6512616E-1,-4.9565586E-1,2.4805643E-2,-3.2653388E-1,-3.466751E-1,-5.373793E-1,-4.5274E-3,1.7877531E-1,-2.785409E-2,-6.2459346E-2,-2.3648936E-2,-6.0522642E-2,-6.2492114E-2,-7.5945646E-2],"categories":[],"categories_nodes":[],"categories_segments":[],"categories_sizes":[],"default_left":[0,1,0,1,0,1,0,0,0,0,0,0,0,0,0],"id":3,"left_children":[1,3,5,7,9,11,13,-1,-1,-1,-1,-1,-1,-1,-1],"loss_changes":[1.4904285E2,1.1296735E2,1.3087036E1,1.2947546E2,3.2622635E1,8.336678E0,2.817627E0,0E0,0E0,0E0,0E0,0E0,0E0,0E0,0E0],"parents":[2147483647,0,0,1,1,2,2,3,3,4,4,5,5,6,6],"right_children":[2,4,6,8,10,12,14,-1,-1,-1,-1,-1,-1,-1,-1],"split_conditions":[1.11434095E-1,1.299E1,1.1145716E-1,2.19E0,1.2091001E1,7.45E0,1.19059384E-1,-4.5274E-3,1.7877531E-1,-2.785409E-2,-6.2459346E-2,-2.3648936E-2,-6.0522642E-2,-6.2492114E-2,-7.5945646E-2],"split_indices":[197,675,1769,279,655,1175,1938,0,0,0,0,0,0,0,0],"split_type":[0,0,0,0,0,0,0,0,0,0,0,0,0,0,0],"sum_hessian":[5.850588E3,3.6821943E3,2.1683933E3,1.6924703E3,1.989724E3,4.7884494E2,1.6895485E3,1.6219119E3,7.0558495E1,1.0706702E3,9.1905383E2,1.8306691E2,2.9577805E2,4.775201E2,1.2120283E3],"tree_param":{"num_deleted":"0","num_feature":"1998","num_nodes":"15","size_leaf_vector":"1"}},{"base_weights":[-3.9624546E-2,-2.778132E-1,4.570354E-1,-1.3959134E-1,-5.0370497E-1,7.8399616E-1,-1.8892242E-1,4.3880255E-3,-5.3022575E-2,1.2675713E-1,-6.834098E-2,-7.4769964E-4,1.4281604E-1,3.3929635E-2,-3.854972E-2],"categories":[],"categories_nodes":[],"categories_segments":[],"categories_sizes":[],"default_left":[0,0,0,0,0,0,0,0,0,0,0,0,0,0,0],"id":4,"left_children":[1,3,5,7,9,11,13,-1,-1,-1,-1,-1,-1,-1,-1],"loss_changes":[6.951285E2,1.23840485E2,4.02597E2,1.0832288E2,1.1400055E1,2.7823346E2,2.7887316E1,0E0,0E0,0E0,0E0,0E0,0E0,0E0,0E0],"parents":[2147483647,0,0,1,1,2,2,3,3,4,4,5,5,6,6],"right_children":[2,4,6,8,10,12,14,-1,-1,-1,-1,-1,-1,-1,-1],"split_conditions":[2.8702467E1,3.59E0,3.85E0,1.1203726E-1,2.9E0,1.9523E1,6.45E-1,4.3880255E-3,-5.3022575E-2,1.2675713E-1,-6.834098E-2,-7.4769964E-4,1.4281604E-1,3.3929635E-2,-3.854972E-2],"split_indices":[757,97,84,495,987,791,1603,0,0,0,0,0,0,0,0],"split_type":[0,0,0,0,0,0,0,0,0,0,0,0,0,0,0],"sum_hessian":[5.871532E3,3.969023E3,1.9025092E3,2.464518E3,1.5045048E3,1.26284E3,6.3966925E2,1.4718545E3,9.926636E2,3.5185187E0,1.5009862E3,3.2989276E2,9.329472E2,1.1549319E2,5.241761E2],"tree_param":{"num_deleted":"0","num_feature":"1998","num_nodes":"15","size_leaf_vector":"1"}},{"base_weights":[3.7833002E-1,9.723504E-1,1.6249645E-1,1.954828E0,8.2107586E-1,-6.430452E-2,4.3628728E-1,2.936306E-1,1.12682596E-1,1.794743E-1,7.674629E-2,-1.3939613E-2,1.8306237E-1,5.0113756E-2,1.7266922E-1],"categories":[],"categories_nodes":[],"categories_segments":[],"categories_sizes":[],"default_left":[0,0,0,0,1,1,0,0,0,0,0,0,0,0,0],"id":5,"left_children":[1,3,5,7,9,11,13,-1,-1,-1,-1,-1,-1,-1,-1],"loss_changes":[7.508055E2,2.285072E2,2.6707138E2,4.9044434E1,1.7277576E2,1.3259492E2,1.0382678E2,0E0,0E0,0E0,0E0,0E0,0E0,0E0,0E0],"parents":[2147483647,0,0,1,1,2,2,3,3,4,4,5,5,6,6],"right_children":[2,4,6,8,10,12,14,-1,-1,-1,-1,-1,-1,-1,-1],"split_conditions":[2.3237259E1,6.739779E-2,4.9E1,4.676345E-1,3.214E0,1.69E0,5.6012705E3,2.936306E-1,1.12682596E-1,1.794743E-1,7.674629E-2,-1.3939613E-2,1.8306237E-1,5.0113756E-2,1.7266922E-1],"split_indices":[15,101,26,386,396,156,144,0,0,0,0,0,0,0,0],"split_type":[0,0,0,0,0,0,0,0,0,0,0,0,0,0,0],"sum_hessian":[5.8565864E3,1.5588024E3,4.2977837E3,2.0452788E2,1.3542745E3,2.3515156E3,1.9462681E3,1.6789273E2,3.663514E1,4.400419E2,9.142326E2,2.2902566E3,6.125908E1,1.8137654E3,1.325027E2],"tree_param":{"num_deleted":"0","num_feature":"1998","num_nodes":"15","size_leaf_vector":"1"}},{"base_weights":[2.5338438E-1,-4.559747E-2,9.962703E-1,-2.7219525E-1,1.8351394E-1,1.8504547E-1,1.2498834E0,4.7217994E-3,-5.4386836E-2,5.6466218E-2,-2.5274174E-3,1.5617794E-1,-9.598479E-3,1.8704605E-1,7.76393E-2],"categories":[],"categories_nodes":[],"categories_segments":[],"categories_sizes":[],"default_left":[0,1,1,0,0,0,0,0,0,0,0,0,0,0,0],"id":6,"left_children":[1,3,5,7,9,11,13,-1,-1,-1,-1,-1,-1,-1,-1],"loss_changes":[1.341067E3,2.237094E2,3.5596497E2,8.820291E1,1.02591965E2,1.0420813E2,1.2398584E2,0E0,0E0,0E0,0E0,0E0,0E0,0E0,0E0],"parents":[2147483647,0,0,1,1,2,2,3,3,4,4,5,5,6,6],"right_children":[2,4,6,8,10,12,14,-1,-1,-1,-1,-1,-1,-1,-1],"split_conditions":[6.5835757E0,2.79E0,5.88E0,6.1E-1,2.1E-1,2.4831169E0,2.7E-1,4.7217994E-3,-5.4386836E-2,5.6466218E-2,-2.5274174E-3,1.5617794E-1,-9.598479E-3,1.8704605E-1,7.76393E-2],"split_indices":[9,455,445,73,319,171,478,0,0,0,0,0,0,0,0],"split_type":[0,0,0,0,0,0,0,0,0,0,0,0,0,0,0],"sum_hessian":[6.035247E3,4.304785E3,1.7304619E3,2.164059E3,2.1407258E3,4.1304135E2,1.3174205E3,6.5221857E2,1.5118406E3,9.856948E2,1.155031E3,8.4287476E1,3.2875388E2,1.0860988E3,2.3132184E2],"tree_param":{"num_deleted":"0","num_feature":"1998","num_nodes":"15","size_leaf_vector":"1"}},{"base_weights":[-1.04726575E-1,-2.9858294E-1,1.0158722E-1,-3.6178118E-1,7.7740826E-2,3.290211E-1,-2.8680652E-1,-5.6365408E-2,-2.578449E-2,6.8919115E-2,-1.4637454E-2,5.8645993E-3,1.03891775E-1,-4.7969654E-2,7.5267054E-2],"categories":[],"categories_nodes":[],"categories_segments":[],"categories_sizes":[],"default_left":[0,0,0,1,0,1,1,0,0,0,0,0,0,0,0],"id":7,"left_children":[1,3,5,7,9,11,13,-1,-1,-1,-1,-1,-1,-1,-1],"loss_changes":[2.3192537E2,7.115744E1,2.4842137E2,2.4873566E1,3.5166637E1,2.2458238E2,6.2094368E1,0E0,0E0,0E0,0E0,0E0,0E0,0E0,0E0],"parents":[2147483647,0,0,1,1,2,2,3,3,4,4,5,5,6,6],"right_children":[2,4,6,8,10,12,14,-1,-1,-1,-1,-1,-1,-1,-1],"split_conditions":[1.122891E-1,1.16457924E-1,3.7541878E1,2.6E-1,-3.4877926E-1,1.35E0,4.762E1,-5.6365408E-2,-2.578449E-2,6.8919115E-2,-1.4637454E-2,5.8645993E-3,1.03891775E-1,-4.7969654E-2,7.5267054E-2],"split_indices":[11,911,13,717,75,578,154,0,0,0,0,0,0,0,0],"split_type":[0,0,0,0,0,0,0,0,0,0,0,0,0,0,0],"sum_hessian":[5.7949985E3,2.9871978E3,2.8078008E3,2.5577449E3,4.2945288E2,1.7710499E3,1.036751E3,1.9080945E3,6.496505E2,1.27795135E2,3.0165775E2,1.0794799E3,6.9157007E2,9.586629E2,7.808805E1],"tree_param":{"num_deleted":"0","num_feature":"1998","num_nodes":"15","size_leaf_vector":"1"}},{"base_weights":[-2.052484E-1,-3.4536475E-1,1.0732931E0,-4.1144598E-1,2.1218485E-1,1.3761406E0,1.0409092E-3,-6.006636E-2,3.364289E-2,1.7786133E-1,-1.714527E-2,4.2799428E-2,2.0647326E-1,9.073825E-2,-4.42929E-2],"categories":[],"categories_nodes":[],"categories_segments":[],"categories_sizes":[],"default_left":[0,0,1,0,0,0,0,0,0,0,0,0,0,0,0],"id":8,"left_children":[1,3,5,7,9,11,13,-1,-1,-1,-1,-1,-1,-1,-1],"loss_changes":[1.0251815E3,1.9011969E2,1.8356384E2,1.0836969E2,2.0710936E2,7.354187E1,2.8710651E1,0E0,0E0,0E0,0E0,0E0,0E0,0E0,0E0],"parents":[2147483647,0,0,1,1,2,2,3,3,4,4,5,5,6,6],"right_children":[2,4,6,8,10,12,14,-1,-1,-1,-1,-1,-1,-1,-1],"split_conditions":[6.40596E-1,4.13E0,1.281E1,1.90734E-1,4.25E0,8.279902E-2,-4.132341E-1,-6.006636E-2,3.364289E-2,1.7786133E-1,-1.714527E-2,4.2799428E-2,2.0647326E-1,9.073825E-2,-4.42929E-2],"split_indices":[120,227,749,1391,117,98,43,0,0,0,0,0,0,0,0],"split_type":[0,0,0,0,0,0,0,0,0,0,0,0,0,0,0],"sum_hessian":[5.7159736E3,5.152856E3,5.6311774E2,4.607358E3,5.454979E2,4.3861777E2,1.2449994E2,4.373779E3,2.3357916E2,1.26264824E2,4.192331E2,5.8492165E1,3.801256E2,4.0221493E1,8.427845E1],"tree_param":{"num_deleted":"0","num_feature":"1998","num_nodes":"15","size_leaf_vector":"1"}},{"base_weights":[-2.7753365E-1,-1.6015257E-1,-4.76797E-1,-4.3816887E-2,-4.097407E-1,-3.1992316E-1,-5.2662086E-1,-1.0329389E-2,1.6471791E-1,-3.4785148E-2,-6.582634E-2,-2.001317E-2,-5.9109006E-2,-5.815076E-2,-7.3537394E-2],"categories":[],"categories_nodes":[],"categories_segments":[],"categories_sizes":[],"default_left":[0,1,0,1,0,1,0,0,0,0,0,0,0,0,0],"id":9,"left_children":[1,3,5,7,9,11,13,-1,-1,-1,-1,-1,-1,-1,-1],"loss_changes":[1.3269534E2,1.038485E2,1.6083282E1,1.0263319E2,1.3457718E1,1.0369484E1,2.5554504E0,0E0,0E0,0E0,0E0,0E0,0E0,0E0,0E0],"parents":[2147483647,0,0,1,1,2,2,3,3,4,4,5,5,6,6],"right_children":[2,4,6,8,10,12,14,-1,-1,-1,-1,-1,-1,-1,-1],"split_conditions":[1.09008424E-1,8.01E0,1.124746E-1,7.701E1,1.0148E1,9.07E0,1.1333635E-1,-1.0329389E-2,1.6471791E-1,-3.4785148E-2,-6.582634E-2,-2.001317E-2,-5.9109006E-2,-5.815076E-2,-7.3537394E-2],"split_indices":[255,958,1391,303,1677,1321,1641,0,0,0,0,0,0,0,0],"split_type":[0,0,0,0,0,0,0,0,0,0,0,0,0,0,0],"sum_hessian":[5.678153E3,3.5757126E3,2.1024402E3,2.4406545E3,1.1350579E3,5.1067828E2,1.5917618E3,2.38074E3,5.991463E1,3.9640936E2,7.3864856E2,2.1242285E2,2.9825546E2,2.9361078E2,1.298151E3],"tree_param":{"num_deleted":"0","num_feature":"1998","num_nodes":"15","size_leaf_vector":"1"}},{"base_weights":[-3.6503226E-2,-2.3967107E-1,5.105523E-1,-2.974608E-2,-4.1412154E-1,7.615326E-1,-1.3223702E-1,-4.4666234E-2,3.7080325E-2,-1.5827632E-2,-6.259055E-2,1.6882807E-2,1.4356084E-1,1.825066E-2,-4.8323702E-2],"categories":[],"categories_nodes":[],"categories_segments":[],"categories_sizes":[],"default_left":[0,0,0,0,0,0,0,0,0,0,0,0,0,0,0],"id":10,"left_children":[1,3,5,7,9,11,13,-1,-1,-1,-1,-1,-1,-1,-1],"loss_changes":[6.4808606E2,1.556759E2,2.5497937E2,1.7885495E2,3.5354218E1,2.2117505E2,2.723314E1,0E0,0E0,0E0,0E0,0E0,0E0,0E0,0E0],"parents":[2147483647,0,0,1,1,2,2,3,3,4,4,5,5,6,6],"right_children":[2,4,6,8,10,12,14,-1,-1,-1,-1,-1,-1,-1,-1],"split_conditions":[1.02656355E1,1.33E0,1.166E0,2.601E1,4.09E0,4.41E1,6.79E-1,-4.4666234E-2,3.7080325E-2,-1.5827632E-2,-6.259055E-2,1.6882807E-2,1.4356084E-1,1.825066E-2,-4.8323702E-2],"split_indices":[94,834,1825,753,891,123,1505,0,0,0,0,0,0,0,0],"split_type":[0,0,0,0,0,0,0,0,0,0,0,0,0,0,0],"sum_hessian":[5.8264736E3,4.2494985E3,1.576975E3,1.9298091E3,2.3196897E3,1.133854E3,4.4312088E2,9.696528E2,9.601563E2,3.4477274E2,1.9749169E3,3.6980264E2,7.640514E2,2.037428E2,2.393781E2],"tree_param":{"num_deleted":"0","num_feature":"1998","num_nodes":"15","size_leaf_vector":"1"}},{"base_weights":[3.338129E-1,7.67205E-1,1.20934516E-1,1.5006131E0,6.5036595E-1,5.749454E-1,-4.501773E-3,2.4945603E-1,1.3309078E-1,4.9460135E-2,1.2479836E-1,6.720964E-2,2.4210446E-1,-2.7233232E-2,2.2354089E-2],"categories":[],"categories_nodes":[],"categories_segments":[],"categories_sizes":[],"default_left":[0,0,0,0,0,0,0,0,0,0,0,0,0,0,0],"id":11,"left_children":[1,3,5,7,9,11,13,-1,-1,-1,-1,-1,-1,-1,-1],"loss_changes":[5.634412E2,1.7028394E2,2.3347038E2,4.584607E1,1.358634E2,7.95614E1,1.0884555E2,0E0,0E0,0E0,0E0,0E0,0E0,0E0,0E0],"parents":[2147483647,0,0,1,1,2,2,3,3,4,4,5,5,6,6],"right_children":[2,4,6,8,10,12,14,-1,-1,-1,-1,-1,-1,-1,-1],"split_conditions":[2.9015566E1,6.7886055E-2,2.8171104E-1,5.069126E0,6E1,2.57E0,4.5E1,2.4945603E-1,1.3309078E-1,4.9460135E-2,1.2479836E-1,6.720964E-2,2.4210446E-1,-2.7233232E-2,2.2354089E-2],"split_indices":[15,326,0,436,65,113,48,0,0,0,0,0,0,0,0],"split_type":[0,0,0,0,0,0,0,0,0,0,0,0,0,0,0],"sum_hessian":[6.107127E3,2.0097922E3,4.097335E3,2.7264096E2,1.7371514E3,8.852864E2,3.2120483E3,1.5735858E2,1.1528239E2,8.644969E2,8.726544E2,8.3720966E2,4.8076725E1,1.4870062E3,1.7250421E3],"tree_param":{"num_deleted":"0","num_feature":"1998","num_nodes":"15","size_leaf_vector":"1"}},{"base_weights":[2.296014E-1,-8.109309E-2,8.0120355E-1,1.7585918E-1,-2.6816145E-1,4.381674E-1,1.166866E0,7.597678E-2,-7.777495E-3,-4.8230167E-2,1.1116207E-2,1.0293768E-1,1.7245468E-2,1.830656E-1,8.0234595E-2],"categories":[],"categories_nodes":[],"categories_segments":[],"categories_sizes":[],"default_left":[1,0,0,0,1,0,0,0,0,0,0,0,0,0,0],"id":12,"left_children":[1,3,5,7,9,11,13,-1,-1,-1,-1,-1,-1,-1,-1],"loss_changes":[1.0914517E3,1.915583E2,2.8617102E2,1.5291904E2,7.342038E1,1.1040558E2,1.179928E2,0E0,0E0,0E0,0E0,0E0,0E0,0E0,0E0],"parents":[2147483647,0,0,1,1,2,2,3,3,4,4,5,5,6,6],"right_children":[2,4,6,8,10,12,14,-1,-1,-1,-1,-1,-1,-1,-1],"split_conditions":[2.74E0,1.41E0,1.0470078E1,1.1273796E-1,7.58E0,5.4E-1,4.5E-1,7.597678E-2,-7.777495E-3,-4.8230167E-2,1.1116207E-2,1.0293768E-1,1.7245468E-2,1.830656E-1,8.0234595E-2],"split_indices":[1167,153,9,12,60,241,813,0,0,0,0,0,0,0,0],"split_type":[0,0,0,0,0,0,0,0,0,0,0,0,0,0,0],"sum_hessian":[6.1428105E3,3.9808728E3,2.1619377E3,1.6772188E3,2.303654E3,1.0872643E3,1.0746735E3,6.27933E2,1.0492858E3,1.830554E3,4.7310007E2,5.268757E2,5.603886E2,7.9830994E2,2.763635E2],"tree_param":{"num_deleted":"0","num_feature":"1998","num_nodes":"15","size_leaf_vector":"1"}},{"base_weights":[-1.0387379E-1,-2.804396E-1,8.940726E-2,-3.4083533E-1,6.365318E-2,3.0474898E-1,-2.642353E-1,4.7685962E-2,-4.8377007E-2,3.7539233E-2,-3.704168E-2,-3.6097743E-2,6.504315E-2,7.100335E-2,-4.569371E-2],"categories":[],"categories_nodes":[],"categories_segments":[],"categories_sizes":[],"default_left":[0,0,0,0,0,0,0,0,0,0,0,0,0,0,0],"id":13,"left_children":[1,3,5,7,9,11,13,-1,-1,-1,-1,-1,-1,-1,-1],"loss_changes":[1.9384212E2,6.172888E1,2.0674722E2,3.3809845E1,3.272139E1,1.7356973E2,6.207013E1,0E0,0E0,0E0,0E0,0E0,0E0,0E0,0E0],"parents":[2147483647,0,0,1,1,2,2,3,3,4,4,5,5,6,6],"right_children":[2,4,6,8,10,12,14,-1,-1,-1,-1,-1,-1,-1,-1],"split_conditions":[1.13417275E-1,1.16457924E-1,5.55E1,-1.0452847E0,1.022232E2,1.36E0,3.276E1,4.7685962E-2,-4.8377007E-2,3.7539233E-2,-3.704168E-2,-3.6097743E-2,6.504315E-2,7.100335E-2,-4.569371E-2],"split_indices":[11,911,1800,45,37,160,605,0,0,0,0,0,0,0,0],"split_type":[0,0,0,0,0,0,0,0,0,0,0,0,0,0,0],"sum_hessian":[5.6762783E3,2.9658965E3,2.7103818E3,2.5230645E3,4.428319E2,1.6847789E3,1.0256029E3,6.63669E1,2.4566978E3,2.7097327E2,1.7185864E2,4.008969E2,1.283882E3,8.831801E1,9.372849E2],"tree_param":{"num_deleted":"0","num_feature":"1998","num_nodes":"15","size_leaf_vector":"1"}},{"base_weights":[-1.99403E-1,-3.812298E-1,6.508699E-1,-4.3774673E-1,2.0350847E-2,1.0599248E0,9.711617E-2,-6.233776E-2,2.935673E-2,1.6263479E-1,-3.0624181E-2,1.8375258E-1,7.9707995E-2,-5.4037165E-2,6.569187E-2],"categories":[],"categories_nodes":[],"categories_segments":[],"categories_sizes":[],"default_left":[0,1,0,0,0,0,0,0,0,0,0,0,0,0,0],"id":14,"left_children":[1,3,5,7,9,11,13,-1,-1,-1,-1,-1,-1,-1,-1],"loss_changes":[8.6450385E2,1.0453882E2,2.229628E2,6.921509E1,1.6896928E2,7.948419E1,8.272722E1,0E0,0E0,0E0,0E0,0E0,0E0,0E0,0E0],"parents":[2147483647,0,0,1,1,2,2,3,3,4,4,5,5,6,6],"right_children":[2,4,6,8,10,12,14,-1,-1,-1,-1,-1,-1,-1,-1],"split_conditions":[6.0359585E-1,3.3E0,8.877091E-2,2.0073321E-1,4.29E0,2.6E1,1.2369222E-1,-6.233776E-2,2.935673E-2,1.6263479E-1,-3.0624181E-2,1.8375258E-1,7.9707995E-2,-5.4037165E-2,6.569187E-2],"split_indices":[56,364,180,1391,90,439,442,0,0,0,0,0,0,0,0],"split_type":[0,0,0,0,0,0,0,0,0,0,0,0,0,0,0],"sum_hessian":[5.5861216E3,4.602993E3,9.831281E2,4.0349358E3,5.6805743E2,5.6429675E2,4.188314E2,3.8815012E3,1.5343456E2,9.660048E1,4.7145694E2,3.3782968E2,2.2646707E2,1.8411287E2,2.347185E2],"tree_param":{"num_deleted":"0","num_feature":"1998","num_nodes":"15","size_leaf_vector":"1"}},{"base_weights":[-2.597773E-1,-1.5177917E-1,-4.7740862E-1,1.9835671E-2,-3.1894588E-1,-3.3053035E-1,-5.162292E-1,-4.081129E-2,2.6190722E-2,-2.6620643E-2,-6.0495045E-2,-2.832915E-2,-6.451768E-2,-3.5969064E-2,-7.044085E-2],"categories":[],"categories_nodes":[],"categories_segments":[],"categories_sizes":[],"default_left":[0,1,0,0,0,0,0,0,0,0,0,0,0,0,0],"id":15,"left_children":[1,3,5,7,9,11,13,-1,-1,-1,-1,-1,-1,-1,-1],"loss_changes":[1.2897174E2,1.0544438E2,1.0012695E1,1.02909805E2,2.9320648E1,6.703621E0,2.4985657E0,0E0,0E0,0E0,0E0,0E0,0E0,0E0,0E0],"parents":[2147483647,0,0,1,1,2,2,3,3,4,4,5,5,6,6],"right_children":[2,4,6,8,10,12,14,-1,-1,-1,-1,-1,-1,-1,-1],"split_conditions":[1.1155942E-1,1.472E1,1.0954152E-1,6.522164E0,1.1458E1,5.7E0,9.081092E-2,-4.081129E-2,2.6190722E-2,-2.6620643E-2,-6.0495045E-2,-2.832915E-2,-6.451768E-2,-3.5969064E-2,-7.044085E-2],"split_indices":[124,675,1743,1585,655,512,1379,0,0,0,0,0,0,0,0],"split_type":[0,0,0,0,0,0,0,0,0,0,0,0,0,0,0],"sum_hessian":[5.4918076E3,3.6728647E3,1.8189427E3,1.8132664E3,1.8595983E3,3.8457913E2,1.4343636E3,6.360828E2,1.1771836E3,9.70449E2,8.891493E2,2.1642493E2,1.6815419E2,4.623936E1,1.3881243E3],"tree_param":{"num_deleted":"0","num_feature":"1998","num_nodes":"15","size_leaf_vector":"1"}},{"base_weights":[-2.7515583E-2,-2.4248908E-1,3.9739457E-1,-1.1845861E-1,-4.8189306E-1,6.285981E-1,-1.3556445E-1,2.4208706E-3,-5.2598372E-2,-4.0668376E-2,-7.133277E-2,4.1368537E-2,1.3812087E-1,3.3595897E-2,-3.6503468E-2],"categories":[],"categories_nodes":[],"categories_segments":[],"categories_sizes":[],"default_left":[0,0,0,0,0,0,0,0,0,0,0,0,0,0,0],"id":16,"left_children":[1,3,5,7,9,11,13,-1,-1,-1,-1,-1,-1,-1,-1],"loss_changes":[5.2631805E2,1.1348218E2,2.3871942E2,9.397506E1,1.1075653E1,1.7219244E2,3.0954414E1,0E0,0E0,0E0,0E0,0E0,0E0,0E0,0E0],"parents":[2147483647,0,0,1,1,2,2,3,3,4,4,5,5,6,6],"right_children":[2,4,6,8,10,12,14,-1,-1,-1,-1,-1,-1,-1,-1],"split_conditions":[3.0331656E1,3.38E0,3.85E0,1.1540169E-1,6.21E0,7.7008194E1,9.0900004E-1,2.4208706E-3,-5.2598372E-2,-4.0668376E-2,-7.133277E-2,4.1368537E-2,1.3812087E-1,3.3595897E-2,-3.6503468E-2],"split_indices":[757,1506,84,495,1211,746,1694,0,0,0,0,0,0,0,0],"split_type":[0,0,0,0,0,0,0,0,0,0,0,0,0,0,0],"sum_hessian":[5.7574375E3,3.8238052E3,1.9336323E3,2.5209844E3,1.3028207E3,1.3483241E3,5.853082E2,1.6818733E3,8.3911115E2,2.8215125E2,1.0206695E3,7.4953925E2,5.9878485E2,1.5217738E2,4.3313083E2],"tree_param":{"num_deleted":"0","num_feature":"1998","num_nodes":"15","size_leaf_vector":"1"}},{"base_weights":[2.9264182E-1,7.219508E-1,1.281689E-1,8.961511E-1,2.7388352E-1,-9.2973836E-2,3.2942626E-1,1.06062494E-1,2.3861195E-1,6.152249E-2,-1.0842931E-2,-1.6526565E-2,1.267882E-1,4.099497E-2,2.4036753E-1],"categories":[],"categories_nodes":[],"categories_segments":[],"categories_sizes":[],"default_left":[0,0,0,0,0,1,0,0,0,0,0,0,0,0,0],"id":17,"left_children":[1,3,5,7,9,11,13,-1,-1,-1,-1,-1,-1,-1,-1],"loss_changes":[4.4503925E2,1.3575891E2,2.0309164E2,1.1518579E2,3.2147305E1,6.783757E1,8.392853E1,0E0,0E0,0E0,0E0,0E0,0E0,0E0,0E0],"parents":[2147483647,0,0,1,1,2,2,3,3,4,4,5,5,6,6],"right_children":[2,4,6,8,10,12,14,-1,-1,-1,-1,-1,-1,-1,-1],"split_conditions":[3.991791E1,3.9643154E-1,4.3E1,3E-1,2.4313827E0,1.48E0,3.606312E-1,1.06062494E-1,2.3861195E-1,6.152249E-2,-1.0842931E-2,-1.6526565E-2,1.267882E-1,4.099497E-2,2.4036753E-1],"split_indices":[5,35,26,426,7,426,533,0,0,0,0,0,0,0,0],"split_type":[0,0,0,0,0,0,0,0,0,0,0,0,0,0,0],"sum_hessian":[6.303481E3,1.7439724E3,4.559509E3,1.2541908E3,4.897816E2,2.1729875E3,2.386521E3,1.1217299E3,1.3246101E2,3.2212228E2,1.6765932E2,2.1137456E3,5.9241962E1,2.349812E3,3.6709E1],"tree_param":{"num_deleted":"0","num_feature":"1998","num_nodes":"15","size_leaf_vector":"1"}},{"base_weights":[2.078589E-1,-6.837987E-2,7.2626644E-1,1.7257354E-1,-2.54634E-1,3.1437E-1,9.45856E-1,-4.904437E-3,7.2939865E-2,-4.498861E-2,1.8888257E-2,1.12416E-1,2.3278291E-3,7.873584E-3,1.3967407E-1],"categories":[],"categories_nodes":[],"categories_segments":[],"categories_sizes":[],"default_left":[1,0,0,0,1,0,0,0,0,0,0,0,0,0,0],"id":18,"left_children":[1,3,5,7,9,11,13,-1,-1,-1,-1,-1,-1,-1,-1],"loss_changes":[9.0366895E2,1.8491498E2,1.9775647E2,1.3906473E2,7.363344E1,1.1875116E2,1.1824475E2,0E0,0E0,0E0,0E0,0E0,0E0,0E0,0E0],"parents":[2147483647,0,0,1,1,2,2,3,3,4,4,5,5,6,6],"right_children":[2,4,6,8,10,12,14,-1,-1,-1,-1,-1,-1,-1,-1],"split_conditions":[1.396E0,1.83E0,6.44E0,1.6349565E0,2.26E0,2.3E-1,2.73E0,-4.904437E-3,7.2939865E-2,-4.498861E-2,1.8888257E-2,1.12416E-1,2.3278291E-3,7.873584E-3,1.3967407E-1],"split_indices":[85,369,1996,3,1444,1147,863,0,0,0,0,0,0,0,0],"split_type":[0,0,0,0,0,0,0,0,0,0,0,0,0,0,0],"sum_hessian":[6.307419E3,4.1160356E3,2.1913833E3,1.7945806E3,2.3214548E3,7.638591E2,1.4275242E3,1.1480353E3,6.4654535E2,1.9305549E3,3.908999E2,2.7560043E2,4.8825864E2,1.3618645E2,1.2913378E3],"tree_param":{"num_deleted":"0","num_feature":"1998","num_nodes":"15","size_leaf_vector":"1"}},{"base_weights":[-9.143406E-2,-2.6725486E-1,9.156764E-2,-3.3296E-1,7.500677E-2,3.0105832E-1,-2.9758888E-1,-5.180534E-2,-1.9069979E-2,5.397694E-2,-1.7796924E-2,-3.085868E-2,6.756736E-2,-1.1509595E-2,-6.027871E-2],"categories":[],"categories_nodes":[],"categories_segments":[],"categories_sizes":[],"default_left":[0,0,0,1,0,0,0,0,0,0,0,0,0,0,0],"id":19,"left_children":[1,3,5,7,9,11,13,-1,-1,-1,-1,-1,-1,-1,-1],"loss_changes":[1.8131892E2,6.46803E1,2.2537218E2,2.4057373E1,3.1587336E1,1.9248824E2,3.0863075E1,0E0,0E0,0E0,0E0,0E0,0E0,0E0,0E0],"parents":[2147483647,0,0,1,1,2,2,3,3,4,4,5,5,6,6],"right_children":[2,4,6,8,10,12,14,-1,-1,-1,-1,-1,-1,-1,-1],"split_conditions":[1.1313048E-1,1.1425265E-1,9.857942E0,1.9E-1,1.2334505E1,6.3671493E-3,3.56E0,-5.180534E-2,-1.9069979E-2,5.397694E-2,-1.7796924E-2,-3.085868E-2,6.756736E-2,-1.1509595E-2,-6.027871E-2],"split_indices":[11,1374,114,1240,347,1283,149,0,0,0,0,0,0,0,0],"split_type":[0,0,0,0,0,0,0,0,0,0,0,0,0,0,0],"sum_hessian":[5.6314795E3,2.8715789E3,2.7599006E3,2.409146E3,4.62433E2,1.7944208E3,9.654798E2,1.8883773E3,5.207686E2,1.7882782E2,2.836052E2,4.940267E2,1.300394E3,4.0290314E2,5.6257666E2],"tree_param":{"num_deleted":"0","num_feature":"1998","num_nodes":"15","size_leaf_vector":"1"}},{"base_weights":[-1.8762544E-1,-3.6817336E-1,5.6888014E-1,-4.2244172E-1,2.140897E-2,-3.881461E-2,9.2210037E-1,-6.075735E-2,2.9742643E-2,1.5907337E-1,-2.668035E-2,8.841169E-2,-2.3291597E-2,1.7741906E-2,1.4305836E-1],"categories":[],"categories_nodes":[],"categories_segments":[],"categories_sizes":[],"default_left":[0,1,0,0,0,0,0,0,0,0,0,0,0,0,0],"id":20,"left_children":[1,3,5,7,9,11,13,-1,-1,-1,-1,-1,-1,-1,-1],"loss_changes":[7.3902704E2,9.234332E1,2.2390002E2,7.3234436E1,1.3748727E2,3.634846E1,7.382068E1,0E0,0E0,0E0,0E0,0E0,0E0,0E0,0E0],"parents":[2147483647,0,0,1,1,2,2,3,3,4,4,5,5,6,6],"right_children":[2,4,6,8,10,12,14,-1,-1,-1,-1,-1,-1,-1,-1],"split_conditions":[5.9655994E-1,1.51E0,1.1206518E-1,2.0511861E-1,3.91E0,5.1268157E-2,9.974113E-2,-6.075735E-2,2.9742643E-2,1.5907337E-1,-2.668035E-2,8.841169E-2,-2.3291597E-2,1.7741906E-2,1.4305836E-1],"split_indices":[601,716,42,1061,110,688,1615,0,0,0,0,0,0,0,0],"split_type":[0,0,0,0,0,0,0,0,0,0,0,0,0,0,0],"sum_hessian":[5.405217E3,4.3646616E3,1.0405553E3,3.8308462E3,5.338156E2,3.8320673E2,6.573486E2,3.6630996E3,1.6774657E2,8.3426254E1,4.5038934E2,6.0636494E1,3.2257022E2,1.00933876E2,5.564147E2],"tree_param":{"num_deleted":"0","num_feature":"1998","num_nodes":"15","size_leaf_vector":"1"}},{"base_weights":[-2.4306083E-1,-1.3262576E-1,-4.5913312E-1,7.783092E-2,-2.7013892E-1,-2.2189659E-1,-4.893903E-1,2.7666E-3,1.4653689E-1,-2.6840566E-2,-6.515494E-2,3.200896E-3,-5.1492568E-2,-4.9591184E-2,-6.950209E-2],"categories":[],"categories_nodes":[],"categories_segments":[],"categories_sizes":[],"default_left":[0,0,0,0,0,1,0,0,0,0,0,0,0,0,0],"id":21,"left_children":[1,3,5,7,9,11,13,-1,-1,-1,-1,-1,-1,-1,-1],"loss_changes":[1.2688907E2,1.0208359E2,1.2681366E1,8.080345E1,3.2035995E1,8.240507E0,4.904175E0,0E0,0E0,0E0,0E0,0E0,0E0,0E0,0E0],"parents":[2147483647,0,0,1,1,2,2,3,3,4,4,5,5,6,6],"right_children":[2,4,6,8,10,12,14,-1,-1,-1,-1,-1,-1,-1,-1],"split_conditions":[1.1010603E-1,1.2756306E-1,9.798862E-2,7.701E1,1.139E1,8.8E0,1.0888392E-1,2.7666E-3,1.4653689E-1,-2.6840566E-2,-6.515494E-2,3.200896E-3,-5.1492568E-2,-4.9591184E-2,-6.950209E-2],"split_indices":[255,367,1896,303,612,597,359,0,0,0,0,0,0,0,0],"split_type":[0,0,0,0,0,0,0,0,0,0,0,0,0,0,0],"sum_hessian":[5.3210073E3,3.5235981E3,1.797409E3,1.3928533E3,2.1307449E3,2.0536203E2,1.592047E3,1.3204087E3,7.244451E1,1.6073444E3,5.234006E2,8.209203E1,1.2327E2,3.035694E2,1.2884775E3],"tree_param":{"num_deleted":"0","num_feature":"1998","num_nodes":"15","size_leaf_vector":"1"}},{"base_weights":[-2.5810057E-2,-2.1415322E-1,4.1185078E-1,-7.2165504E-2,-4.457981E-1,5.987678E-1,-1.2954597E-1,2.4187483E-2,-3.6209296E-2,-1.9706158E-2,-6.442983E-2,-1.1187047E-4,1.04174E-1,-4.459043E-2,1.7274868E-2],"categories":[],"categories_nodes":[],"categories_segments":[],"categories_sizes":[],"default_left":[0,0,0,0,0,0,0,0,0,0,0,0,0,0,0],"id":22,"left_children":[1,3,5,7,9,11,13,-1,-1,-1,-1,-1,-1,-1,-1],"loss_changes":[4.7572235E2,1.3263252E2,1.7588593E2,1.246192E2,1.5237305E1,1.3647736E2,2.3440939E1,0E0,0E0,0E0,0E0,0E0,0E0,0E0,0E0],"parents":[2147483647,0,0,1,1,2,2,3,3,4,4,5,5,6,6],"right_children":[2,4,6,8,10,12,14,-1,-1,-1,-1,-1,-1,-1,-1],"split_conditions":[1.0132634E1,1.1860001E0,1.166E0,9.707362E-2,1.119E1,9.467876E0,4.3339962E-1,2.4187483E-2,-3.6209296E-2,-1.9706158E-2,-6.442983E-2,-1.1187047E-4,1.04174E-1,-4.459043E-2,1.7274868E-2],"split_indices":[94,39,1825,1261,1845,4,395,0,0,0,0,0,0,0,0],"split_type":[0,0,0,0,0,0,0,0,0,0,0,0,0,0,0],"sum_hessian":[5.766696E3,4.0324714E3,1.7342246E3,2.5018218E3,1.5306494E3,1.2889757E3,4.4524884E2,1.0981943E3,1.4036276E3,1.5555319E2,1.3750963E3,2.9335474E2,9.9562103E2,2.4929643E2,1.9595242E2],"tree_param":{"num_deleted":"0","num_feature":"1998","num_nodes":"15","size_leaf_vector":"1"}},{"base_weights":[2.60206E-1,5.379028E-1,5.455805E-2,7.8027606E-1,3.4849918E-1,4.510901E-1,-3.810592E-2,8.984556E-2,1.8776837E-1,3.373365E-2,1.3038859E-1,4.1340232E-2,1.775596E-1,-2.338608E-2,1.74777E-2],"categories":[],"categories_nodes":[],"categories_segments":[],"categories_sizes":[],"default_left":[0,0,0,0,0,1,0,0,0,0,0,0,0,0,0],"id":23,"left_children":[1,3,5,7,9,11,13,-1,-1,-1,-1,-1,-1,-1,-1],"loss_changes":[3.6853604E2,1.2546393E2,1.3638466E2,8.091815E1,9.314528E1,8.689603E1,6.8817535E1,0E0,0E0,0E0,0E0,0E0,0E0,0E0,0E0],"parents":[2147483647,0,0,1,1,2,2,3,3,4,4,5,5,6,6],"right_children":[2,4,6,8,10,12,14,-1,-1,-1,-1,-1,-1,-1,-1],"split_conditions":[3.9979248E1,3.102714E1,2.2041577E-1,1.7E-1,1.7044768E-1,2.8E-1,4.5E1,8.984556E-2,1.8776837E-1,3.373365E-2,1.3038859E-1,4.1340232E-2,1.775596E-1,-2.338608E-2,1.74777E-2],"split_indices":[15,5,25,29,38,204,379,0,0,0,0,0,0,0,0],"split_type":[0,0,0,0,0,0,0,0,0,0,0,0,0,0,0],"sum_hessian":[6.4522847E3,2.7437485E3,3.7085361E3,1.2005983E3,1.5431503E3,7.008806E2,3.0076555E3,1.0201531E3,1.804452E2,1.3365181E3,2.0663222E2,6.041552E2,9.6725395E1,1.6633242E3,1.3443314E3],"tree_param":{"num_deleted":"0","num_feature":"1998","num_nodes":"15","size_leaf_vector":"1"}},{"base_weights":[1.8308964E-1,-8.496369E-2,6.1174476E-1,2.1287623E-1,-1.9500656E-1,6.1737765E-2,7.6745176E-1,1.66073E-1,1.8895386E-2,-4.0498465E-2,-2.1354274E-3,1.0615881E-1,-1.5644321E-2,1.2555407E-1,6.193949E-2],"categories":[],"categories_nodes":[],"categories_segments":[],"categories_sizes":[],"default_left":[0,0,1,0,1,0,0,0,0,0,0,0,0,0,0],"id":24,"left_children":[1,3,5,7,9,11,13,-1,-1,-1,-1,-1,-1,-1,-1],"loss_changes":[7.337073E2,1.2889737E2,2.1028455E2,7.809228E1,5.4652885E1,7.080501E1,9.68999E1,0E0,0E0,0E0,0E0,0E0,0E0,0E0,0E0],"parents":[2147483647,0,0,1,1,2,2,3,3,4,4,5,5,6,6],"right_children":[2,4,6,8,10,12,14,-1,-1,-1,-1,-1,-1,-1,-1],"split_conditions":[4.731055E0,1.3258363E1,5.48E0,8.3872564E-2,2.6E1,1.71E0,1.2508252E0,1.66073E-1,1.8895386E-2,-4.0498465E-2,-2.1354274E-3,1.0615881E-1,-1.5644321E-2,1.2555407E-1,6.193949E-2],"split_indices":[9,357,445,12,417,312,700,0,0,0,0,0,0,0,0],"split_type":[0,0,0,0,0,0,0,0,0,0,0,0,0,0,0],"sum_hessian":[6.382323E3,3.9278455E3,2.4544778E3,1.0591467E3,2.8686987E3,5.422202E2,1.9122576E3,6.7616684E1,9.9153E2,1.7993536E3,1.0693451E3,1.0511404E2,4.3710614E2,1.2359735E3,6.76284E2],"tree_param":{"num_deleted":"0","num_feature":"1998","num_nodes":"15","size_leaf_vector":"1"}},{"base_weights":[-8.1769854E-2,-2.6940194E-1,8.295821E-2,-3.346251E-1,1.1840509E-1,2.5820243E-1,-2.5754943E-1,-5.133899E-2,-1.8756913E-2,-1.38425855E-2,6.2568724E-2,-2.6112452E-2,6.0970955E-2,-8.819305E-3,-5.8257792E-2],"categories":[],"categories_nodes":[],"categories_segments":[],"categories_sizes":[],"default_left":[0,0,0,1,1,0,0,0,0,0,0,0,0,0,0],"id":25,"left_children":[1,3,5,7,9,11,13,-1,-1,-1,-1,-1,-1,-1,-1],"loss_changes":[1.7068463E2,6.538127E1,1.7566705E2,2.0294754E1,2.8788193E1,1.7200633E2,3.37155E1,0E0,0E0,0E0,0E0,0E0,0E0,0E0,0E0],"parents":[2147483647,0,0,1,1,2,2,3,3,4,4,5,5,6,6],"right_children":[2,4,6,8,10,12,14,-1,-1,-1,-1,-1,-1,-1,-1],"split_conditions":[1.1062288E-1,1.1916614E-1,9.529958E0,3.8E-1,4.3E-1,7.3033012E-3,6.13E0,-5.133899E-2,-1.8756913E-2,-1.38425855E-2,6.2568724E-2,-2.6112452E-2,6.0970955E-2,-8.819305E-3,-5.8257792E-2],"split_indices":[1450,1511,114,231,854,1283,1794,0,0,0,0,0,0,0,0],"split_type":[0,0,0,0,0,0,0,0,0,0,0,0,0,0,0],"sum_hessian":[5.5185483E3,2.5792703E3,2.9392783E3,2.2081858E3,3.710845E2,1.9409056E3,9.9837256E2,1.775307E3,4.3287878E2,2.2750513E2,1.4357936E2,5.8542395E2,1.3554817E3,4.7883798E2,5.195346E2],"tree_param":{"num_deleted":"0","num_feature":"1998","num_nodes":"15","size_leaf_vector":"1"}},{"base_weights":[-1.7440484E-1,-3.4269336E-1,5.540409E-1,1.4696893E-2,-4.1439617E-1,3.548908E-2,8.257186E-1,9.0335995E-2,-2.0961668E-2,-6.226262E-2,-3.7887236E-3,3.905644E-2,-4.890369E-2,1.2871712E-1,1.451099E-2],"categories":[],"categories_nodes":[],"categories_segments":[],"categories_sizes":[],"default_left":[0,0,0,0,0,0,0,0,0,0,0,0,0,0,0],"id":26,"left_children":[1,3,5,7,9,11,13,-1,-1,-1,-1,-1,-1,-1,-1],"loss_changes":[6.4953455E2,1.1027432E2,1.4004797E2,8.112574E1,6.756671E1,3.5291836E1,6.156842E1,0E0,0E0,0E0,0E0,0E0,0E0,0E0,0E0],"parents":[2147483647,0,0,1,1,2,2,3,3,4,4,5,5,6,6],"right_children":[2,4,6,8,10,12,14,-1,-1,-1,-1,-1,-1,-1,-1],"split_conditions":[5.845016E-1,5.8989383E-2,1.19593084E-1,3.2E1,1.3719086E-1,4.902368E-1,4.872263E-1,9.0335995E-2,-2.0961668E-2,-6.226262E-2,-3.7887236E-3,3.905644E-2,-4.890369E-2,1.2871712E-1,1.451099E-2],"split_indices":[587,180,42,439,101,66,33,0,0,0,0,0,0,0,0],"split_type":[0,0,0,0,0,0,0,0,0,0,0,0,0,0,0],"sum_hessian":[5.292927E3,4.3005483E3,9.9237836E2,7.189242E2,3.5816243E3,3.4202118E2,6.503572E2,1.4684401E2,5.7208014E2,3.1791743E3,4.0244986E2,2.0906462E2,1.3295656E2,5.487591E2,1.0159804E2],"tree_param":{"num_deleted":"0","num_feature":"1998","num_nodes":"15","size_leaf_vector":"1"}},{"base_weights":[-2.3010565E-1,-1.2676741E-1,-4.5829147E-1,-2.0794753E-2,-3.831489E-1,-3.7435943E-1,-5.2422017E-1,-2.1204464E-2,3.0016722E-2,-3.223827E-2,-6.341925E-2,-5.6810014E-2,-3.2278556E-2,-7.085434E-2,-2.6067289E-2],"categories":[],"categories_nodes":[],"categories_segments":[],"categories_sizes":[],"default_left":[0,1,0,0,0,0,0,0,0,0,0,0,0,0,0],"id":27,"left_children":[1,3,5,7,9,11,13,-1,-1,-1,-1,-1,-1,-1,-1],"loss_changes":[1.2155032E2,9.656091E1,8.468811E0,8.424798E1,1.2964233E1,4.41362E0,6.452637E-1,0E0,0E0,0E0,0E0,0E0,0E0,0E0,0E0],"parents":[2147483647,0,0,1,1,2,2,3,3,4,4,5,5,6,6],"right_children":[2,4,6,8,10,12,14,-1,-1,-1,-1,-1,-1,-1,-1],"split_conditions":[1.2101345E-1,7.16E0,1.3290061E-1,4.7070538E1,1.1058001E1,1.0832431E1,7.6749176E-1,-2.1204464E-2,3.0016722E-2,-3.223827E-2,-6.341925E-2,-5.6810014E-2,-3.2278556E-2,-7.085434E-2,-2.6067289E-2],"split_indices":[530,218,635,505,1677,128,25,0,0,0,0,0,0,0,0],"split_type":[0,0,0,0,0,0,0,0,0,0,0,0,0,0,0],"sum_hessian":[5.1579194E3,3.5524912E3,1.6054285E3,2.5152075E3,1.0372836E3,7.12672E2,8.927565E2,1.6117068E3,9.0350073E2,3.9964044E2,6.376431E2,5.2060876E2,1.9206322E2,8.836064E2,9.150095E0],"tree_param":{"num_deleted":"0","num_feature":"1998","num_nodes":"15","size_leaf_vector":"1"}},{"base_weights":[-2.7112817E-2,-2.0518668E-1,3.6727014E-1,-6.295477E-2,-4.3724576E-1,5.4635897E-2,6.6430295E-1,-4.9861483E-2,1.1450042E-2,-2.8574249E-2,-6.4249344E-2,-6.9972496E-3,9.283311E-2,1.448418E-2,1.1340316E-1],"categories":[],"categories_nodes":[],"categories_segments":[],"categories_sizes":[],"default_left":[0,0,1,0,0,0,0,0,0,0,0,0,0,0,0],"id":28,"left_children":[1,3,5,7,9,11,13,-1,-1,-1,-1,-1,-1,-1,-1],"loss_changes":[4.0413327E2,1.3078416E2,1.6615427E2,1.1233474E2,1.3572693E1,5.9425133E1,9.144229E1,0E0,0E0,0E0,0E0,0E0,0E0,0E0,0E0],"parents":[2147483647,0,0,1,1,2,2,3,3,4,4,5,5,6,6],"right_children":[2,4,6,8,10,12,14,-1,-1,-1,-1,-1,-1,-1,-1],"split_conditions":[1.0132634E1,1.194E0,8.98261E-1,9.409E0,5.88E0,6.387026E-1,9.743096E0,-4.9861483E-2,1.1450042E-2,-2.8574249E-2,-6.4249344E-2,-6.9972496E-3,9.283311E-2,1.448418E-2,1.1340316E-1],"split_indices":[94,1523,1482,627,891,145,68,0,0,0,0,0,0,0,0],"split_type":[0,0,0,0,0,0,0,0,0,0,0,0,0,0,0],"sum_hessian":[5.7499736E3,3.962051E3,1.7879225E3,2.458172E3,1.5038789E3,8.723395E2,9.1558307E2,7.972608E2,1.6609114E3,2.3307166E2,1.2708073E3,7.487368E2,1.2360265E2,2.2405472E2,6.915283E2],"tree_param":{"num_deleted":"0","num_feature":"1998","num_nodes":"15","size_leaf_vector":"1"}},{"base_weights":[2.3751491E-1,4.9274528E-1,6.1723966E-2,7.4463326E-1,2.738964E-1,2.93559E-1,-7.6465294E-2,1.3676757E-1,7.6902084E-2,3.081562E-2,1.7613517E-1,3.6029726E-2,2.0796911E-1,-2.6870158E-2,7.7690817E-3],"categories":[],"categories_nodes":[],"categories_segments":[],"categories_sizes":[],"default_left":[0,0,0,0,1,1,0,0,0,0,0,0,0,0,0],"id":29,"left_children":[1,3,5,7,9,11,13,-1,-1,-1,-1,-1,-1,-1,-1],"loss_changes":[2.9607535E2,1.4793445E2,1.2534378E2,5.7579834E1,6.61323E1,4.580359E1,4.0668564E1,0E0,0E0,0E0,0E0,0E0,0E0,0E0,0E0],"parents":[2147483647,0,0,1,1,2,2,3,3,4,4,5,5,6,6],"right_children":[2,4,6,8,10,12,14,-1,-1,-1,-1,-1,-1,-1,-1],"split_conditions":[3.3510804E-1,7.861285E0,4.6517418E1,1.810752E-1,8.64E1,6.6E-1,4.1E1,1.3676757E-1,7.6902084E-2,3.081562E-2,1.7613517E-1,3.6029726E-2,2.0796911E-1,-2.6870158E-2,7.7690817E-3],"split_indices":[0,61,15,0,185,813,379,0,0,0,0,0,0,0,0],"split_type":[0,0,0,0,0,0,0,0,0,0,0,0,0,0,0],"sum_hessian":[6.5982266E3,2.6894702E3,3.9087563E3,1.2479241E3,1.4415463E3,1.4588505E3,2.4499058E3,4.791367E2,7.687874E2,1.3845892E3,5.6956944E1,1.4323597E3,2.6490774E1,1.2758215E3,1.1740842E3],"tree_param":{"num_deleted":"0","num_feature":"1998","num_nodes":"15","size_leaf_vector":"1"}},{"base_weights":[1.6472541E-1,-1.07569896E-1,5.13401E-1,1.2073982E-1,-2.6968858E-1,2.2104838E-1,7.1832013E-1,5.785725E-2,-9.556247E-3,-4.7594078E-2,-1.5476346E-3,6.8034686E-2,-1.0494552E-2,5.6685556E-2,1.1600912E-1],"categories":[],"categories_nodes":[],"categories_segments":[],"categories_sizes":[],"default_left":[1,0,0,0,1,0,0,0,0,0,0,0,0,0,0],"id":30,"left_children":[1,3,5,7,9,11,13,-1,-1,-1,-1,-1,-1,-1,-1],"loss_changes":[6.1216907E2,1.34115E2,1.6902637E2,8.9503494E1,4.615721E1,9.972007E1,7.0539856E1,0E0,0E0,0E0,0E0,0E0,0E0,0E0,0E0],"parents":[2147483647,0,0,1,1,2,2,3,3,4,4,5,5,6,6],"right_children":[2,4,6,8,10,12,14,-1,-1,-1,-1,-1,-1,-1,-1],"split_conditions":[1.89E0,1.01E0,6.2377667E0,1.1219066E-1,5.95E0,2.3E-1,1.8158074E-1,5.785725E-2,-9.556247E-3,-4.7594078E-2,-1.5476346E-3,6.8034686E-2,-1.0494552E-2,5.6685556E-2,1.1600912E-1],"split_indices":[72,54,135,12,1669,877,579,0,0,0,0,0,0,0,0],"split_type":[0,0,0,0,0,0,0,0,0,0,0,0,0,0,0],"sum_hessian":[6.4443315E3,3.6193413E3,2.8249905E3,1.5030999E3,2.1162417E3,1.1660048E3,1.6589856E3,5.738802E2,9.2921967E2,1.5942032E3,5.220383E2,5.962002E2,5.6980457E2,5.4700836E2,1.1119773E3],"tree_param":{"num_deleted":"0","num_feature":"1998","num_nodes":"15","size_leaf_vector":"1"}},{"base_weights":[-7.935173E-2,-2.0968606E-1,1.5334539E-1,-2.712362E-1,3.5606584E-1,4.0402254E-1,-2.9433823E-1,-4.4428587E-2,-4.2050374E-3,1.0653567E-1,-3.7734237E-2,-2.3923976E-2,8.21399E-2,1.0459346E-1,-4.63966E-2],"categories":[],"categories_nodes":[],"categories_segments":[],"categories_sizes":[],"default_left":[0,1,0,0,0,1,0,0,0,0,0,0,0,0,0],"id":31,"left_children":[1,3,5,7,9,11,13,-1,-1,-1,-1,-1,-1,-1,-1],"loss_changes":[1.663599E2,1.2262425E2,2.2131035E2,4.511734E1,9.663701E1,1.5254535E2,3.921443E1,0E0,0E0,0E0,0E0,0E0,0E0,0E0,0E0],"parents":[2147483647,0,0,1,1,2,2,3,3,4,4,5,5,6,6],"right_children":[2,4,6,8,10,12,14,-1,-1,-1,-1,-1,-1,-1,-1],"split_conditions":[1.119936E-1,2.698E1,1.0398664E1,1.16224214E-1,1.1596383E2,2.2E-1,3.27E-1,-4.4428587E-2,-4.2050374E-3,1.0653567E-1,-3.7734237E-2,-2.3923976E-2,8.21399E-2,1.0459346E-1,-4.63966E-2],"split_indices":[131,119,114,636,871,58,39,0,0,0,0,0,0,0,0],"split_type":[0,0,0,0,0,0,0,0,0,0,0,0,0,0,0],"sum_hessian":[5.480799E3,3.5132385E3,1.9675599E3,3.169545E3,3.4369366E2,1.2614387E3,7.061212E2,2.5407021E3,6.288429E2,2.0359119E2,1.4010248E2,3.3113608E2,9.303027E2,3.0556044E1,6.755651E2],"tree_param":{"num_deleted":"0","num_feature":"1998","num_nodes":"15","size_leaf_vector":"1"}},{"base_weights":[-1.6668628E-1,-3.5644248E-1,4.2546636E-1,-4.015374E-1,1.0406182E-1,-1.6907641E-3,7.1148884E-1,-6.1663505E-2,-1.6526585E-2,-2.0720959E-2,1.1402526E-1,7.4280635E-2,-1.6998582E-2,2.1208635E-2,1.14929944E-1],"categories":[],"categories_nodes":[],"categories_segments":[],"categories_sizes":[],"default_left":[0,0,0,0,0,0,0,0,0,0,0,0,0,0,0],"id":32,"left_children":[1,3,5,7,9,11,13,-1,-1,-1,-1,-1,-1,-1,-1],"loss_changes":[5.7952167E2,8.118021E1,1.5295792E2,5.659546E1,6.755281E1,3.503115E1,5.9322266E1,0E0,0E0,0E0,0E0,0E0,0E0,0E0,0E0],"parents":[2147483647,0,0,1,1,2,2,3,3,4,4,5,5,6,6],"right_children":[2,4,6,8,10,12,14,-1,-1,-1,-1,-1,-1,-1,-1],"split_conditions":[5.911297E-1,1.5042728E-1,1.19593084E-1,1.2817355E-1,2.83E0,4.6574008E-2,4.9259037E-1,-6.1663505E-2,-1.6526585E-2,-2.0720959E-2,1.1402526E-1,7.4280635E-2,-1.6998582E-2,2.1208635E-2,1.14929944E-1],"split_indices":[517,665,42,1708,1438,180,385,0,0,0,0,0,0,0,0],"split_type":[0,0,0,0,0,0,0,0,0,0,0,0,0,0,0],"sum_hessian":[5.1523984E3,3.9026533E3,1.2497451E3,3.5548252E3,3.47828E2,5.0208066E2,7.476645E2,2.947756E3,6.0706915E2,2.5951532E2,8.831268E1,9.088006E1,4.112006E2,1.5490337E2,5.927611E2],"tree_param":{"num_deleted":"0","num_feature":"1998","num_nodes":"15","size_leaf_vector":"1"}},{"base_weights":[-2.2063147E-1,-1.20821685E-1,-4.4317505E-1,-2.4682093E-1,7.3426865E-2,-3.3309695E-1,-5.032098E-1,-4.00794E-2,6.9044423E-3,3.3582248E-2,-1.8589228E-2,-3.0498795E-2,-6.305744E-2,6.833646E-3,-6.800884E-2],"categories":[],"categories_nodes":[],"categories_segments":[],"categories_sizes":[],"default_left":[0,0,0,0,1,1,0,0,0,0,0,0,0,0,0],"id":33,"left_children":[1,3,5,7,9,11,13,-1,-1,-1,-1,-1,-1,-1,-1],"loss_changes":[1.10789734E2,8.448031E1,9.846741E0,3.209603E1,5.084292E1,7.7393074E0,1.5868683E0,0E0,0E0,0E0,0E0,0E0,0E0,0E0,0E0],"parents":[2147483647,0,0,1,1,2,2,3,3,4,4,5,5,6,6],"right_children":[2,4,6,8,10,12,14,-1,-1,-1,-1,-1,-1,-1,-1],"split_conditions":[1.1168999E-1,8.807983E0,1.1941109E-1,1.0227507E1,2.224E1,6.0066667E0,8.00373E-2,-4.00794E-2,6.9044423E-3,3.3582248E-2,-1.8589228E-2,-3.0498795E-2,-6.305744E-2,6.833646E-3,-6.800884E-2],"split_indices":[1202,215,1822,68,797,1294,411,0,0,0,0,0,0,0,0],"split_type":[0,0,0,0,0,0,0,0,0,0,0,0,0,0,0],"sum_hessian":[4.990894E3,3.4478882E3,1.543006E3,2.0909836E3,1.3569045E3,5.495715E2,9.934346E2,1.7837035E3,3.0728018E2,7.399493E2,6.1695526E2,3.1192157E2,2.3764989E2,4.763653E0,9.886709E2],"tree_param":{"num_deleted":"0","num_feature":"1998","num_nodes":"15","size_leaf_vector":"1"}},{"base_weights":[-3.1016817E-2,-2.8942075E-1,2.0078045E-1,-1.9023271E-1,-4.8071912E-1,4.1177937E-1,-1.8484314E-1,-1.2449814E-2,-6.221225E-2,-2.666638E-2,-6.726611E-2,-1.9062614E-2,7.933954E-2,1.0050813E-2,-4.014488E-2],"categories":[],"categories_nodes":[],"categories_segments":[],"categories_sizes":[],"default_left":[0,0,0,0,0,0,0,0,0,0,0,0,0,0,0],"id":34,"left_children":[1,3,5,7,9,11,13,-1,-1,-1,-1,-1,-1,-1,-1],"loss_changes":[3.4094272E2,5.0870514E1,2.443216E2,4.7167603E1,4.897812E0,1.9191263E2,3.1455952E1,0E0,0E0,0E0,0E0,0E0,0E0,0E0,0E0],"parents":[2147483647,0,0,1,1,2,2,3,3,4,4,5,5,6,6],"right_children":[2,4,6,8,10,12,14,-1,-1,-1,-1,-1,-1,-1,-1],"split_conditions":[2.3788511E1,8.74E0,9.34E-1,1.22322895E-1,3.95E0,3.382E1,2.6011868E0,-1.2449814E-2,-6.221225E-2,-2.666638E-2,-6.726611E-2,-1.9062614E-2,7.933954E-2,1.0050813E-2,-4.014488E-2],"split_indices":[348,242,49,31,459,699,135,0,0,0,0,0,0,0,0],"split_type":[0,0,0,0,0,0,0,0,0,0,0,0,0,0,0],"sum_hessian":[5.687833E3,2.6893013E3,2.9985315E3,1.7738828E3,9.154185E2,1.9379885E3,1.060543E3,1.308371E3,4.6551196E2,6.139448E1,8.54024E2,4.7263654E2,1.465352E3,3.2349564E2,7.3704736E2],"tree_param":{"num_deleted":"0","num_feature":"1998","num_nodes":"15","size_leaf_vector":"1"}},{"base_weights":[2.1827212E-1,4.8877668E-1,7.900985E-2,4.0798524E-1,1.0048153E0,-1.3012993E-1,2.1309845E-1,7.154354E-2,7.991884E-3,1.7410612E-1,1.0593384E-1,-2.2279771E-2,1.16348445E-1,2.0132538E-2,1.015915E-1],"categories":[],"categories_nodes":[],"categories_segments":[],"categories_sizes":[],"default_left":[0,0,0,0,0,1,1,0,0,0,0,0,0,0,0],"id":35,"left_children":[1,3,5,7,9,11,13,-1,-1,-1,-1,-1,-1,-1,-1],"loss_changes":[2.5515665E2,9.5094055E1,1.2556502E2,8.632602E1,1.7304077E1,6.2393776E1,9.348815E1,0E0,0E0,0E0,0E0,0E0,0E0,0E0,0E0],"parents":[2147483647,0,0,1,1,2,2,3,3,4,4,5,5,6,6],"right_children":[2,4,6,8,10,12,14,-1,-1,-1,-1,-1,-1,-1,-1],"split_conditions":[4.7233265E1,1.7E-1,3.9E1,3.8435894E-1,1.2242926E1,1.55E0,4.406907E1,7.154354E-2,7.991884E-3,1.7410612E-1,1.0593384E-1,-2.2279771E-2,1.16348445E-1,2.0132538E-2,1.015915E-1],"split_indices":[5,29,65,6,5,175,965,0,0,0,0,0,0,0,0],"split_type":[0,0,0,0,0,0,0,0,0,0,0,0,0,0,0],"sum_hessian":[6.7733315E3,2.3001108E3,4.4732207E3,1.9921183E3,3.0799268E2,1.7475725E3,2.7256482E3,1.4675759E3,5.245423E2,1.2694355E2,1.8104912E2,1.68895E3,5.86226E1,2.4433938E3,2.8225433E2],"tree_param":{"num_deleted":"0","num_feature":"1998","num_nodes":"15","size_leaf_vector":"1"}},{"base_weights":[1.5422028E-1,-1.21434614E-1,4.5398003E-1,8.197118E-2,-2.8579995E-1,9.275318E-2,6.433253E-1,4.729649E-2,-1.3825807E-2,-5.012778E-2,-4.5405026E-4,5.5437677E-2,-1.7408604E-2,1.0484438E-1,3.0427365E-2],"categories":[],"categories_nodes":[],"categories_segments":[],"categories_sizes":[],"default_left":[0,0,1,0,1,0,0,0,0,0,0,0,0,0,0],"id":36,"left_children":[1,3,5,7,9,11,13,-1,-1,-1,-1,-1,-1,-1,-1],"loss_changes":[5.3265784E2,1.1235603E2,2.1107098E2,7.506079E1,4.5736786E1,7.575984E1,1.15079834E2,0E0,0E0,0E0,0E0,0E0,0E0,0E0,0E0],"parents":[2147483647,0,0,1,1,2,2,3,3,4,4,5,5,6,6],"right_children":[2,4,6,8,10,12,14,-1,-1,-1,-1,-1,-1,-1,-1],"split_conditions":[3.2707772E0,1.29E0,5.76E0,1.1436907E-1,1.054E1,2.3E-1,3.65E0,4.729649E-2,-1.3825807E-2,-5.012778E-2,-4.5405026E-4,5.5437677E-2,-1.7408604E-2,1.0484438E-1,3.0427365E-2],"split_indices":[3,153,507,12,909,319,1438,0,0,0,0,0,0,0,0],"split_type":[0,0,0,0,0,0,0,0,0,0,0,0,0,0,0],"sum_hessian":[6.4426553E3,3.356947E3,3.085708E3,1.5007838E3,1.8561633E3,1.0623094E3,2.0233986E3,6.092018E2,8.9158203E2,1.4179213E3,4.3824207E2,4.3490704E2,6.2740234E2,1.5223339E3,5.0106476E2],"tree_param":{"num_deleted":"0","num_feature":"1998","num_nodes":"15","size_leaf_vector":"1"}},{"base_weights":[-6.348033E-2,-2.3294096E-1,1.1124924E-1,-2.7909547E-1,1.8545566E-1,3.0389148E-1,-2.025571E-1,5.275616E-2,-4.0977754E-2,-6.7750732E-3,9.029956E-2,-1.4766619E-3,8.2875066E-2,-5.46436E-2,-3.5358153E-3],"categories":[],"categories_nodes":[],"categories_segments":[],"categories_sizes":[],"default_left":[0,0,0,0,1,1,1,0,0,0,0,0,0,0,0],"id":37,"left_children":[1,3,5,7,9,11,13,-1,-1,-1,-1,-1,-1,-1,-1],"loss_changes":[1.597365E2,5.29933E1,1.607318E2,4.297464E1,3.1434217E1,1.6217708E2,3.6355225E1,0E0,0E0,0E0,0E0,0E0,0E0,0E0,0E0],"parents":[2147483647,0,0,1,1,2,2,3,3,4,4,5,5,6,6],"right_children":[2,4,6,8,10,12,14,-1,-1,-1,-1,-1,-1,-1,-1],"split_conditions":[1.1250666E-1,1.2022729E-1,7.6763215E0,-1.0144111E0,5.9E-1,4E-2,4.37E0,5.275616E-2,-4.0977754E-2,-6.7750732E-3,9.029956E-2,-1.4766619E-3,8.2875066E-2,-5.46436E-2,-3.5358153E-3],"split_indices":[20,112,114,45,917,1707,160,0,0,0,0,0,0,0,0],"split_type":[0,0,0,0,0,0,0,0,0,0,0,0,0,0,0],"sum_hessian":[5.39064E3,2.736213E3,2.6544275E3,2.4650144E3,2.711984E2,1.6447825E3,1.009645E3,8.997539E1,2.375039E3,1.8394543E2,8.725296E1,8.205808E2,8.242016E2,4.6667624E2,5.429688E2],"tree_param":{"num_deleted":"0","num_feature":"1998","num_nodes":"15","size_leaf_vector":"1"}},{"base_weights":[-1.536839E-1,-3.3230224E-1,4.1234177E-1,-4.4640806E-1,-1.3363379E-1,6.215438E-2,6.8732107E-1,-6.67923E-2,-2.7945247E-2,-2.7080135E-2,1.0305643E-1,3.597329E-2,-6.3429706E-2,2.4634006E-2,1.1110043E-1],"categories":[],"categories_nodes":[],"categories_segments":[],"categories_sizes":[],"default_left":[0,0,0,1,0,0,0,0,0,0,0,0,0,0,0],"id":38,"left_children":[1,3,5,7,9,11,13,-1,-1,-1,-1,-1,-1,-1,-1],"loss_changes":[5.0646393E2,8.6166534E1,1.1564067E2,2.8901367E1,8.535661E1,5.8552883E1,4.6913177E1,0E0,0E0,0E0,0E0,0E0,0E0,0E0,0E0],"parents":[2147483647,0,0,1,1,2,2,3,3,4,4,5,5,6,6],"right_children":[2,4,6,8,10,12,14,-1,-1,-1,-1,-1,-1,-1,-1],"split_conditions":[5.9514785E-1,1.1131993E-1,1.3150488E-1,2.29E0,1.556083E-1,5.237211E-1,6.743525E-1,-6.67923E-2,-2.7945247E-2,-2.7080135E-2,1.0305643E-1,3.597329E-2,-6.3429706E-2,2.4634006E-2,1.1110043E-1],"split_indices":[56,1188,19,364,225,203,385,0,0,0,0,0,0,0,0],"split_type":[0,0,0,0,0,0,0,0,0,0,0,0,0,0,0],"sum_hessian":[5.0042847E3,3.8045857E3,1.1996987E3,2.4148796E3,1.389706E3,5.2886005E2,6.7083875E2,1.9907715E3,4.2410812E2,1.2939005E3,9.580554E1,3.8269955E2,1.4616049E2,1.4631532E2,5.2452344E2],"tree_param":{"num_deleted":"0","num_feature":"1998","num_nodes":"15","size_leaf_vector":"1"}},{"base_weights":[-2.1181159E-1,-9.447024E-2,-3.9087117E-1,2.1023273E-2,-3.554106E-1,-1.7972393E-1,-4.3886247E-1,-2.0020928E-3,1.24165684E-1,-3.0855788E-2,-6.251234E-2,-4.287803E-3,-4.8954345E-2,-4.9748026E-2,-6.631673E-2],"categories":[],"categories_nodes":[],"categories_segments":[],"categories_sizes":[],"default_left":[0,1,0,0,0,0,0,0,0,0,0,0,0,0,0],"id":39,"left_children":[1,3,5,7,9,11,13,-1,-1,-1,-1,-1,-1,-1,-1],"loss_changes":[1.02211365E2,8.873839E1,1.9351807E1,6.6270035E1,1.2236473E1,9.806376E0,5.4817505E0,0E0,0E0,0E0,0E0,0E0,0E0,0E0,0E0],"parents":[2147483647,0,0,1,1,2,2,3,3,4,4,5,5,6,6],"right_children":[2,4,6,8,10,12,14,-1,-1,-1,-1,-1,-1,-1,-1],"split_conditions":[1.1526941E-1,6.24E0,1.0663333E-1,7.701E1,1.65761E1,5.29E-1,1.1814884E-1,-2.0020928E-3,1.24165684E-1,-3.0855788E-2,-6.251234E-2,-4.287803E-3,-4.8954345E-2,-4.9748026E-2,-6.631673E-2],"split_indices":[1136,512,413,303,1857,1416,131,0,0,0,0,0,0,0,0],"split_type":[0,0,0,0,0,0,0,0,0,0,0,0,0,0,0],"sum_hessian":[4.866286E3,2.941793E3,1.9244932E3,2.0406093E3,9.011838E2,3.5831903E2,1.5661742E3,1.964583E3,7.602631E1,4.2280252E2,4.7838126E2,2.0034726E2,1.5797177E2,7.0034753E2,8.6582666E2],"tree_param":{"num_deleted":"0","num_feature":"1998","num_nodes":"15","size_leaf_vector":"1"}},{"base_weights":[-2.539115E-2,-2.6334906E-1,2.0457737E-1,-1.389691E-1,-4.320736E-1,3.5393313E-1,-1.8486182E-1,-4.622983E-2,4.092681E-3,-3.717018E-2,-6.424064E-2,6.630721E-2,-1.0095569E-2,3.4118034E-3,-5.199299E-2],"categories":[],"categories_nodes":[],"categories_segments":[],"categories_sizes":[],"default_left":[0,0,0,0,0,0,0,0,0,0,0,0,0,0,0],"id":40,"left_children":[1,3,5,7,9,11,13,-1,-1,-1,-1,-1,-1,-1,-1],"loss_changes":[3.086808E2,5.8045486E1,1.669998E2,5.5551414E1,8.098541E0,1.241304E2,3.384858E1,0E0,0E0,0E0,0E0,0E0,0E0,0E0,0E0],"parents":[2147483647,0,0,1,1,2,2,3,3,4,4,5,5,6,6],"right_children":[2,4,6,8,10,12,14,-1,-1,-1,-1,-1,-1,-1,-1],"split_conditions":[6.944686E0,2.76E0,1.1359999E0,2.402E1,1.121E1,1.21318E-1,1.1076164E-1,-4.622983E-2,4.092681E-3,-3.717018E-2,-6.424064E-2,6.630721E-2,-1.0095569E-2,3.4118034E-3,-5.199299E-2],"split_indices":[4,1794,1825,691,494,814,20,0,0,0,0,0,0,0,0],"split_type":[0,0,0,0,0,0,0,0,0,0,0,0,0,0,0],"sum_hessian":[5.6364873E3,2.7699697E3,2.8665176E3,1.5968066E3,1.1731632E3,2.0720527E3,7.944649E2,7.2155396E2,8.752527E2,2.7070776E2,9.0245544E2,1.5636979E3,5.0835492E2,3.9018506E2,4.0427982E2],"tree_param":{"num_deleted":"0","num_feature":"1998","num_nodes":"15","size_leaf_vector":"1"}},{"base_weights":[2.0136328E-1,3.889972E-1,1.8968092E-2,6.729613E-1,2.397984E-1,2.2886467E-1,-6.681716E-2,7.955499E-2,1.6421206E-1,2.6399607E-2,1.2507981E-1,2.3956481E-2,1.2609677E-1,-1.2678245E-2,6.8590514E-2],"categories":[],"categories_nodes":[],"categories_segments":[],"categories_sizes":[],"default_left":[0,0,0,0,0,0,1,0,0,0,0,0,0,0,0],"id":41,"left_children":[1,3,5,7,9,11,13,-1,-1,-1,-1,-1,-1,-1,-1],"loss_changes":[2.3360092E2,1.4220035E2,6.2400986E1,4.993506E1,6.5810905E1,3.574109E1,3.9167778E1,0E0,0E0,0E0,0E0,0E0,0E0,0E0,0E0],"parents":[2147483647,0,0,1,1,2,2,3,3,4,4,5,5,6,6],"right_children":[2,4,6,8,10,12,14,-1,-1,-1,-1,-1,-1,-1,-1],"split_conditions":[3.1605688E-1,5.097174E0,9.75479E-1,2.2E-1,1.11E0,1E-1,2.2982388E6,7.955499E-2,1.6421206E-1,2.6399607E-2,1.2507981E-1,2.3956481E-2,1.2609677E-1,-1.2678245E-2,6.8590514E-2],"split_indices":[6,61,3,204,29,621,624,0,0,0,0,0,0,0,0],"split_type":[0,0,0,0,0,0,0,0,0,0,0,0,0,0,0],"sum_hessian":[6.824034E3,3.3624966E3,3.4615378E3,1.1555493E3,2.2069473E3,1.0032326E3,2.4583052E3,1.0107484E3,1.4480093E2,2.0791587E3,1.2778846E2,9.389343E2,6.429826E1,2.3481982E3,1.1010701E2],"tree_param":{"num_deleted":"0","num_feature":"1998","num_nodes":"15","size_leaf_vector":"1"}},{"base_weights":[1.3692671E-1,-8.313168E-2,4.5742005E-1,-2.6329014E-1,5.4653067E-2,1.6233249E-1,6.522483E-1,1.4553036E-3,-5.1064804E-2,5.3597096E-2,-6.747672E-3,-2.2161566E-2,4.3710317E-2,5.7727993E-2,1.0911958E-1],"categories":[],"categories_nodes":[],"categories_segments":[],"categories_sizes":[],"default_left":[0,1,0,0,0,1,0,0,0,0,0,0,0,0,0],"id":42,"left_children":[1,3,5,7,9,11,13,-1,-1,-1,-1,-1,-1,-1,-1],"loss_changes":[4.5894617E2,9.5832565E1,1.5206439E2,5.3492104E1,7.901424E1,5.641337E1,5.5940002E1,0E0,0E0,0E0,0E0,0E0,0E0,0E0,0E0],"parents":[2147483647,0,0,1,1,2,2,3,3,4,4,5,5,6,6],"right_children":[2,4,6,8,10,12,14,-1,-1,-1,-1,-1,-1,-1,-1],"split_conditions":[6.9377675E0,2.43E0,8.0382185E0,1.32E0,9.9711336E-2,6.916E1,4.7328812E-1,1.4553036E-3,-5.1064804E-2,5.3597096E-2,-6.747672E-3,-2.2161566E-2,4.3710317E-2,5.7727993E-2,1.0911958E-1],"split_indices":[108,924,135,346,38,146,203,0,0,0,0,0,0,0,0],"split_type":[0,0,0,0,0,0,0,0,0,0,0,0,0,0,0],"sum_hessian":[6.504011E3,3.8571863E3,2.6468252E3,1.6707021E3,2.186484E3,1.0541674E3,1.5926578E3,4.992634E2,1.1714388E3,5.0922943E2,1.6772545E3,3.5032574E2,7.038417E2,6.6815265E2,9.245051E2],"tree_param":{"num_deleted":"0","num_feature":"1998","num_nodes":"15","size_leaf_vector":"1"}},{"base_weights":[-6.074322E-2,-2.0985013E-1,1.1833357E-1,-2.458983E-1,2.2662927E-1,2.6821283E-1,-3.1951427E-1,-4.073776E-2,-8.375832E-5,7.872003E-2,-1.435584E-2,-1.6058708E-2,6.660539E-2,1.8597172E-1,-4.6654858E-2],"categories":[],"categories_nodes":[],"categories_segments":[],"categories_sizes":[],"default_left":[0,0,0,1,0,1,0,0,0,0,0,0,0,0,0],"id":43,"left_children":[1,3,5,7,9,11,13,-1,-1,-1,-1,-1,-1,-1,-1],"loss_changes":[1.431217E2,4.613524E1,1.6003105E2,3.7906906E1,2.6980982E1,1.6016037E2,3.0287048E1,0E0,0E0,0E0,0E0,0E0,0E0,0E0,0E0],"parents":[2147483647,0,0,1,1,2,2,3,3,4,4,5,5,6,6],"right_children":[2,4,6,8,10,12,14,-1,-1,-1,-1,-1,-1,-1,-1],"split_conditions":[1.0523265E-1,1.1839191E-1,1.0244955E1,3.3E-1,1.4176952E1,2E-2,1.4417771E1,-4.073776E-2,-8.375832E-5,7.872003E-2,-1.435584E-2,-1.6058708E-2,6.660539E-2,1.8597172E-1,-4.6654858E-2],"split_indices":[1717,435,886,717,106,426,832,0,0,0,0,0,0,0,0],"split_type":[0,0,0,0,0,0,0,0,0,0,0,0,0,0,0],"sum_hessian":[5.3558467E3,2.9222686E3,2.4335781E3,2.700212E3,2.2205658E2,1.8136069E3,6.199711E2,2.1892393E3,5.1097275E2,1.0612972E2,1.1592686E2,6.707472E2,1.1428597E3,8.181392E0,6.1178973E2],"tree_param":{"num_deleted":"0","num_feature":"1998","num_nodes":"15","size_leaf_vector":"1"}},{"base_weights":[-1.514146E-1,-3.29788E-1,3.463974E-1,-4.3186638E-1,-1.18779294E-1,-3.5146553E-2,5.627902E-1,-6.447173E-2,-1.8944869E-2,-2.9478788E-2,6.294758E-2,-3.2508302E-2,6.480102E-2,9.719023E-2,1.2994078E-2],"categories":[],"categories_nodes":[],"categories_segments":[],"categories_sizes":[],"default_left":[0,0,0,1,0,0,1,0,0,0,0,0,0,0,0],"id":44,"left_children":[1,3,5,7,9,11,13,-1,-1,-1,-1,-1,-1,-1,-1],"loss_changes":[4.3319067E2,7.722818E1,1.0632124E2,3.3494537E1,6.950502E1,5.0284092E1,6.1231323E1,0E0,0E0,0E0,0E0,0E0,0E0,0E0,0E0],"parents":[2147483647,0,0,1,1,2,2,3,3,4,4,5,5,6,6],"right_children":[2,4,6,8,10,12,14,-1,-1,-1,-1,-1,-1,-1,-1],"split_conditions":[5.850476E-1,1.1454109E-1,7.298592E-1,2.3E0,1.2934439E-1,2.34E0,3.0366E2,-6.447173E-2,-1.8944869E-2,-2.9478788E-2,6.294758E-2,-3.2508302E-2,6.480102E-2,9.719023E-2,1.2994078E-2],"split_indices":[56,270,385,1438,665,449,966,0,0,0,0,0,0,0,0],"split_type":[0,0,0,0,0,0,0,0,0,0,0,0,0,0,0],"sum_hessian":[4.873496E3,3.5884392E3,1.2850566E3,2.416936E3,1.1715032E3,4.657203E2,8.193363E2,2.0746274E3,3.4230862E2,1.0013792E3,1.7012396E2,3.3357275E2,1.3214755E2,6.0877094E2,2.1056532E2],"tree_param":{"num_deleted":"0","num_feature":"1998","num_nodes":"15","size_leaf_vector":"1"}},{"base_weights":[-1.9766808E-1,-8.641887E-2,-3.9075893E-1,2.4412522E-2,-3.3762422E-1,-1.9882603E-1,-4.3848202E-1,-6.961607E-3,6.548754E-2,-2.1996481E-2,-5.5843808E-2,-4.1024555E-2,-4.9960767E-3,-4.1988496E-2,-6.369577E-2],"categories":[],"categories_nodes":[],"categories_segments":[],"categories_sizes":[],"default_left":[0,1,0,0,0,0,0,0,0,0,0,0,0,0,0],"id":45,"left_children":[1,3,5,7,9,11,13,-1,-1,-1,-1,-1,-1,-1,-1],"loss_changes":[1.0189804E2,8.394791E1,1.5698822E1,7.390022E1,1.2353439E1,5.984782E0,5.873047E0,0E0,0E0,0E0,0E0,0E0,0E0,0E0,0E0],"parents":[2147483647,0,0,1,1,2,2,3,3,4,4,5,5,6,6],"right_children":[2,4,6,8,10,12,14,-1,-1,-1,-1,-1,-1,-1,-1],"split_conditions":[1.1187776E-1,6.29E0,1.0099517E-1,3.5103894E2,1.6346985E1,8.901875E0,-3.1954388E-3,-6.961607E-3,6.548754E-2,-2.1996481E-2,-5.5843808E-2,-4.1024555E-2,-4.9960767E-3,-4.1988496E-2,-6.369577E-2],"split_indices":[31,218,352,273,61,215,81,0,0,0,0,0,0,0,0],"split_type":[0,0,0,0,0,0,0,0,0,0,0,0,0,0,0],"sum_hessian":[4.744836E3,3.0123948E3,1.7324409E3,2.091564E3,9.208307E2,3.4722168E2,1.3852192E3,1.7975173E3,2.9404672E2,2.8676767E2,6.3406305E2,2.0823575E2,1.3898593E2,3.0843365E2,1.0767856E3],"tree_param":{"num_deleted":"0","num_feature":"1998","num_nodes":"15","size_leaf_vector":"1"}},{"base_weights":[-2.4164878E-2,-2.1864317E-1,2.1996817E-1,-8.019411E-2,-4.0484893E-1,4.0752983E-1,-1.1361056E-1,1.7556259E-3,-5.2444182E-2,-3.8664527E-2,-6.544895E-2,-9.853625E-3,7.712059E-2,5.522594E-3,-5.1485367E-2],"categories":[],"categories_nodes":[],"categories_segments":[],"categories_sizes":[],"default_left":[0,0,0,0,0,1,0,0,0,0,0,0,0,0,0],"id":46,"left_children":[1,3,5,7,9,11,13,-1,-1,-1,-1,-1,-1,-1,-1],"loss_changes":[2.6395206E2,7.969913E1,1.5433466E2,5.1393448E1,1.238385E1,1.2626425E2,3.7085873E1,0E0,0E0,0E0,0E0,0E0,0E0,0E0,0E0],"parents":[2147483647,0,0,1,1,2,2,3,3,4,4,5,5,6,6],"right_children":[2,4,6,8,10,12,14,-1,-1,-1,-1,-1,-1,-1,-1],"split_conditions":[8.205925E0,1.06904216E-1,2.519115E0,2.08E0,1.2314647E-1,1.9327E1,1.1740372E-1,1.7556259E-3,-5.2444182E-2,-3.8664527E-2,-6.544895E-2,-9.853625E-3,7.712059E-2,5.522594E-3,-5.1485367E-2],"split_indices":[172,1262,135,1782,530,23,20,0,0,0,0,0,0,0,0],"split_type":[0,0,0,0,0,0,0,0,0,0,0,0,0,0,0],"sum_hessian":[5.555014E3,3.0920725E3,2.462942E3,1.775243E3,1.3168295E3,1.5762052E3,8.867367E2,1.3662965E3,4.0894653E2,5.464971E2,7.703324E2,4.0526352E2,1.1709417E3,5.6448315E2,3.2225357E2],"tree_param":{"num_deleted":"0","num_feature":"1998","num_nodes":"15","size_leaf_vector":"1"}},{"base_weights":[1.764355E-1,4.1886196E-1,4.7353182E-2,6.931632E-1,2.7808535E-1,2.442776E-1,-6.434076E-2,1.09423734E-1,5.497528E-2,6.5326825E-2,1.4587296E-2,2.5199194E-2,1.1275948E-1,-1.2012364E-2,7.538923E-2],"categories":[],"categories_nodes":[],"categories_segments":[],"categories_sizes":[],"default_left":[0,0,0,0,1,0,1,0,0,0,0,0,0,0,0],"id":47,"left_children":[1,3,5,7,9,11,13,-1,-1,-1,-1,-1,-1,-1,-1],"loss_changes":[2.1581451E2,9.2120026E1,9.909399E1,2.7158264E1,5.585125E1,5.472293E1,4.511086E1,0E0,0E0,0E0,0E0,0E0,0E0,0E0,0E0],"parents":[2147483647,0,0,1,1,2,2,3,3,4,4,5,5,6,6],"right_children":[2,4,6,8,10,12,14,-1,-1,-1,-1,-1,-1,-1,-1],"split_conditions":[2.9445928E-1,4.513509E0,3.9324387E1,2.7199286E-1,1.1059913E-1,1.9039436E-1,3.2336834E4,1.09423734E-1,5.497528E-2,6.5326825E-2,1.4587296E-2,2.5199194E-2,1.1275948E-1,-1.2012364E-2,7.538923E-2],"split_indices":[0,61,15,35,562,190,1540,0,0,0,0,0,0,0,0],"split_type":[0,0,0,0,0,0,0,0,0,0,0,0,0,0,0],"sum_hessian":[6.895785E3,2.3942734E3,4.5015117E3,8.0913983E2,1.5851334E3,1.628235E3,2.8732766E3,5.647116E2,2.4442822E2,7.10144E2,8.7498944E2,1.4888906E3,1.3934439E2,2.7644666E3,1.0881015E2],"tree_param":{"num_deleted":"0","num_feature":"1998","num_nodes":"15","size_leaf_vector":"1"}},{"base_weights":[1.1824255E-1,-1.0131781E-1,3.9328474E-1,8.2918964E-2,-2.3259364E-1,-2.4473604E-2,5.008442E-1,6.162633E-2,-5.68732E-3,-5.352211E-2,-9.47122E-3,-2.2160627E-2,4.9714275E-2,9.0194635E-2,3.8329784E-2],"categories":[],"categories_nodes":[],"categories_segments":[],"categories_sizes":[],"default_left":[0,0,1,0,1,1,0,0,0,0,0,0,0,0,0],"id":48,"left_children":[1,3,5,7,9,11,13,-1,-1,-1,-1,-1,-1,-1,-1],"loss_changes":[3.934367E2,8.768901E1,1.2997299E2,7.1036934E1,5.6771675E1,3.3031845E1,8.400885E1,0E0,0E0,0E0,0E0,0E0,0E0,0E0,0E0],"parents":[2147483647,0,0,1,1,2,2,3,3,4,4,5,5,6,6],"right_children":[2,4,6,8,10,12,14,-1,-1,-1,-1,-1,-1,-1,-1],"split_conditions":[5.8957405E0,7.9E-1,2.68E0,1.02870226E-1,3.14E0,1.2992741E-1,5E-1,6.162633E-2,-5.68732E-3,-5.352211E-2,-9.47122E-3,-2.2160627E-2,4.9714275E-2,9.0194635E-2,3.8329784E-2],"split_indices":[108,240,310,12,455,1777,929,0,0,0,0,0,0,0,0],"split_type":[0,0,0,0,0,0,0,0,0,0,0,0,0,0,0],"sum_hessian":[6.511498E3,3.6217253E3,2.8897727E3,1.5072305E3,2.1144949E3,5.9202844E2,2.2977444E3,3.7544836E2,1.1317821E3,1.0444464E3,1.0700486E3,4.375215E2,1.5450693E2,1.2816776E3,1.0160667E3],"tree_param":{"num_deleted":"0","num_feature":"1998","num_nodes":"15","size_leaf_vector":"1"}},{"base_weights":[-6.548641E-2,4.3868873E-1,-1.13528855E-1,8.6489606E-1,-4.9387027E-2,6.3257027E-1,-1.5644334E-1,2.5425255E-2,1.9841251E-1,1.04816355E-1,-2.635384E-2,1.3624872E-1,-1.811063E-2,-5.169611E-2,-1.0765329E-2],"categories":[],"categories_nodes":[],"categories_segments":[],"categories_sizes":[],"default_left":[0,0,0,0,0,0,1,0,0,0,0,0,0,0,0],"id":49,"left_children":[1,3,5,7,9,11,13,-1,-1,-1,-1,-1,-1,-1,-1],"loss_changes":[1.2828468E2,9.5954834E1,1.5496445E2,1.01058304E2,2.6712599E1,7.729744E1,7.958187E1,0E0,0E0,0E0,0E0,0E0,0E0,0E0,0E0],"parents":[2147483647,0,0,1,1,2,2,3,3,4,4,5,5,6,6],"right_children":[2,4,6,8,10,12,14,-1,-1,-1,-1,-1,-1,-1,-1],"split_conditions":[-8.81958E-1,1.968E1,-1.1492218E0,5.2E-1,1.1009016E1,3.2E-1,1.71E0,2.5425255E-2,1.9841251E-1,1.04816355E-1,-2.635384E-2,1.3624872E-1,-1.811063E-2,-5.169611E-2,-1.0765329E-2],"split_indices":[75,954,43,917,82,694,160,0,0,0,0,0,0,0,0],"split_type":[0,0,0,0,0,0,0,0,0,0,0,0,0,0,0],"sum_hessian":[5.2896E3,4.586517E2,4.830948E3,2.439475E2,2.1470421E2,2.6112985E2,4.5698184E3,1.1721942E2,1.2672808E2,3.0860254E1,1.8384395E2,1.7400458E2,8.7125275E1,1.1435275E3,3.4262908E3],"tree_param":{"num_deleted":"0","num_feature":"1998","num_nodes":"15","size_leaf_vector":"1"}},{"base_weights":[-1.4281891E-1,-3.054527E-1,3.5812092E-1,-4.3262666E-1,-8.129799E-2,-8.21713E-2,5.772826E-1,-6.3647225E-2,-2.0841852E-2,-3.1841896E-2,3.0360457E-2,-5.1655624E-2,6.38417E-2,1.1429112E-1,5.044841E-2],"categories":[],"categories_nodes":[],"categories_segments":[],"categories_sizes":[],"default_left":[0,0,0,1,0,0,1,0,0,0,0,0,0,0,0],"id":50,"left_children":[1,3,5,7,9,11,13,-1,-1,-1,-1,-1,-1,-1,-1],"loss_changes":[3.8599634E2,1.0185397E2,1.12181335E2,2.5738434E1,6.2111515E1,6.569871E1,4.208075E1,0E0,0E0,0E0,0E0,0E0,0E0,0E0,0E0],"parents":[2147483647,0,0,1,1,2,2,3,3,4,4,5,5,6,6],"right_children":[2,4,6,8,10,12,14,-1,-1,-1,-1,-1,-1,-1,-1],"split_conditions":[1.1995946E-1,1.19088255E-1,1.07E0,3.3E0,5.1237804E-1,1.3444991E-1,1.9E0,-6.3647225E-2,-2.0841852E-2,-3.1841896E-2,3.0360457E-2,-5.1655624E-2,6.38417E-2,1.1429112E-1,5.044841E-2],"split_indices":[16,1061,227,364,120,1233,117,0,0,0,0,0,0,0,0],"split_type":[0,0,0,0,0,0,0,0,0,0,0,0,0,0,0],"sum_hessian":[4.732814E3,3.5734998E3,1.1593141E3,2.2786736E3,1.2948263E3,3.8573618E2,7.7357794E2,1.9846364E3,2.940373E2,8.597881E2,4.3503815E2,2.5054144E2,1.3519475E2,3.2592596E2,4.4765195E2],"tree_param":{"num_deleted":"0","num_feature":"1998","num_nodes":"15","size_leaf_vector":"1"}},{"base_weights":[-1.8189225E-1,-7.5599454E-2,-3.8396406E-1,-5.181023E-3,-4.0260932E-1,-2.2059682E-1,-4.488996E-1,-1.1724698E-2,4.8208173E-2,1.398142E-2,-5.7755508E-2,-9.148864E-3,-4.674658E-2,-6.614307E-2,-4.7909588E-2],"categories":[],"categories_nodes":[],"categories_segments":[],"categories_sizes":[],"default_left":[0,1,0,0,0,1,1,0,0,0,0,0,0,0,0],"id":51,"left_children":[1,3,5,7,9,11,13,-1,-1,-1,-1,-1,-1,-1,-1],"loss_changes":[9.9498505E1,7.000512E1,1.6728897E1,7.4815926E1,7.4904633E0,8.8456135E0,4.175415E0,0E0,0E0,0E0,0E0,0E0,0E0,0E0,0E0],"parents":[2147483647,0,0,1,1,2,2,3,3,4,4,5,5,6,6],"right_children":[2,4,6,8,10,12,14,-1,-1,-1,-1,-1,-1,-1,-1],"split_conditions":[1.0707696E-1,1.5527E1,1.1204568E-1,9.1821884E1,7.6E-1,8.38E0,8.4463197E-1,-1.1724698E-2,4.8208173E-2,1.398142E-2,-5.7755508E-2,-9.148864E-3,-4.674658E-2,-6.614307E-2,-4.7909588E-2],"split_indices":[255,1194,1884,989,1784,1321,971,0,0,0,0,0,0,0,0],"split_type":[0,0,0,0,0,0,0,0,0,0,0,0,0,0,0],"sum_hessian":[4.6331743E3,3.0380852E3,1.5950892E3,2.5015996E3,5.3648566E2,4.5640747E2,1.1386818E3,2.0426266E3,4.5897305E2,2.691784E1,5.095678E2,2.0905605E2,2.4735141E2,7.6962415E2,3.6905762E2],"tree_param":{"num_deleted":"0","num_feature":"1998","num_nodes":"15","size_leaf_vector":"1"}},{"base_weights":[-2.0449014E-2,-2.3061617E-1,1.9233295E-1,-1.3961962E-1,-4.541947E-1,3.5785857E-1,-1.0530056E-1,2.0279568E-3,-4.044563E-2,6.7753695E-2,-6.2268015E-2,6.436701E-2,-1.283413E-2,-4.6728592E-4,-5.7446945E-2],"categories":[],"categories_nodes":[],"categories_segments":[],"categories_sizes":[],"default_left":[0,0,0,0,0,0,0,0,0,0,0,0,0,0,0],"id":52,"left_children":[1,3,5,7,9,11,13,-1,-1,-1,-1,-1,-1,-1,-1],"loss_changes":[2.4752533E2,5.651294E1,1.3558894E2,4.9472824E1,7.5072327E0,9.710896E1,3.229196E1,0E0,0E0,0E0,0E0,0E0,0E0,0E0,0E0],"parents":[2147483647,0,0,1,1,2,2,3,3,4,4,5,5,6,6],"right_children":[2,4,6,8,10,12,14,-1,-1,-1,-1,-1,-1,-1,-1],"split_conditions":[8.262704E0,1.1948252E-1,2.7331393E0,1.44E0,1.1864463E-3,1.2341866E-1,1.2481291E-1,2.0279568E-3,-4.044563E-2,6.7753695E-2,-6.2268015E-2,6.436701E-2,-1.283413E-2,-4.6728592E-4,-5.7446945E-2],"split_indices":[88,197,17,1174,664,499,413,0,0,0,0,0,0,0,0],"split_type":[0,0,0,0,0,0,0,0,0,0,0,0,0,0,0],"sum_hessian":[5.5306973E3,2.7823533E3,2.748344E3,1.9800187E3,8.023346E2,1.7658473E3,9.8249664E2,1.01165497E3,9.683637E2,6.416859E0,7.959177E2,1.3936545E3,3.721928E2,7.481799E2,2.3431679E2],"tree_param":{"num_deleted":"0","num_feature":"1998","num_nodes":"15","size_leaf_vector":"1"}},{"base_weights":[1.625022E-1,3.3903462E-1,1.8974807E-2,7.3087376E-1,2.642713E-1,-1.6197836E-1,1.16529964E-1,1.08612075E-1,4.344766E-3,6.282481E-2,2.057188E-2,1.23624E-1,-2.4965998E-2,7.061836E-2,1.08142635E-2],"categories":[],"categories_nodes":[],"categories_segments":[],"categories_sizes":[],"default_left":[0,0,0,0,1,0,0,0,0,0,0,0,0,0,0],"id":53,"left_children":[1,3,5,7,9,11,13,-1,-1,-1,-1,-1,-1,-1,-1],"loss_changes":[1.7755211E2,9.1642456E1,6.8317276E1,2.7030975E1,5.954561E1,3.522783E1,3.6989292E1,0E0,0E0,0E0,0E0,0E0,0E0,0E0,0E0],"parents":[2147483647,0,0,1,1,2,2,3,3,4,4,5,5,6,6],"right_children":[2,4,6,8,10,12,14,-1,-1,-1,-1,-1,-1,-1,-1],"split_conditions":[3.4832704E-1,7.308533E-2,4E1,1.3389301E-1,4.0629997E0,4.996785E0,7.5413184E0,1.08612075E-1,4.344766E-3,6.282481E-2,2.057188E-2,1.23624E-1,-2.4965998E-2,7.061836E-2,1.08142635E-2],"split_indices":[0,62,48,98,995,106,78,0,0,0,0,0,0,0,0],"split_type":[0,0,0,0,0,0,0,0,0,0,0,0,0,0,0],"sum_hessian":[7.0059336E3,3.140407E3,3.8655269E3,5.0012613E2,2.6402808E3,1.3535033E3,2.5120234E3,4.500486E2,5.007751E1,9.316299E2,1.7086509E3,2.7337309E1,1.326166E3,2.0126033E2,2.3107632E3],"tree_param":{"num_deleted":"0","num_feature":"1998","num_nodes":"15","size_leaf_vector":"1"}},{"base_weights":[1.1384135E-1,-1.130299E-1,3.41127E-1,5.0156593E-2,-2.8635278E-1,-9.55027E-2,4.2779586E-1,1.699643E-2,-5.4839082E-2,-4.9074683E-2,-6.92121E-3,4.299003E-2,-3.7363376E-2,7.262729E-2,2.243079E-2],"categories":[],"categories_nodes":[],"categories_segments":[],"categories_sizes":[],"default_left":[0,0,1,0,1,0,0,0,0,0,0,0,0,0,0],"id":54,"left_children":[1,3,5,7,9,11,13,-1,-1,-1,-1,-1,-1,-1,-1],"loss_changes":[3.3571057E2,9.2209595E1,1.23151764E2,5.885414E1,2.9200043E1,4.1150055E1,7.94964E1,0E0,0E0,0E0,0E0,0E0,0E0,0E0,0E0],"parents":[2147483647,0,0,1,1,2,2,3,3,4,4,5,5,6,6],"right_children":[2,4,6,8,10,12,14,-1,-1,-1,-1,-1,-1,-1,-1],"split_conditions":[3.2707772E0,2.09E0,5.81E0,1.5649065E-1,7.76E0,5E-2,7.64E0,1.699643E-2,-5.4839082E-2,-4.9074683E-2,-6.92121E-3,4.299003E-2,-3.7363376E-2,7.262729E-2,2.243079E-2],"split_indices":[3,369,1355,529,60,1847,153,0,0,0,0,0,0,0,0],"split_type":[0,0,0,0,0,0,0,0,0,0,0,0,0,0,0],"sum_hessian":[6.506685E3,3.2568584E3,3.2498264E3,1.6782773E3,1.5785812E3,5.3820044E2,2.711626E3,1.4400433E3,2.3823395E2,1.1812354E3,3.973459E2,1.6377982E2,3.7442062E2,1.8927925E3,8.188335E2],"tree_param":{"num_deleted":"0","num_feature":"1998","num_nodes":"15","size_leaf_vector":"1"}},{"base_weights":[-5.5394698E-2,-1.8398668E-1,1.256467E-1,-2.2517319E-1,3.9413932E-1,2.7932814E-1,-2.6243162E-1,-3.576972E-2,2.791882E-2,9.277402E-2,-3.707553E-2,-1.1711093E-2,6.081615E-2,3.3249717E-2,-5.191865E-2],"categories":[],"categories_nodes":[],"categories_segments":[],"categories_sizes":[],"default_left":[0,0,0,1,0,0,0,0,0,0,0,0,0,0,0],"id":55,"left_children":[1,3,5,7,9,11,13,-1,-1,-1,-1,-1,-1,-1,-1],"loss_changes":[1.2172656E2,7.297894E1,1.296922E2,5.0732666E1,4.089969E1,9.886743E1,3.9177025E1,0E0,0E0,0E0,0E0,0E0,0E0,0E0,0E0],"parents":[2147483647,0,0,1,1,2,2,3,3,4,4,5,5,6,6],"right_children":[2,4,6,8,10,12,14,-1,-1,-1,-1,-1,-1,-1,-1],"split_conditions":[1.0726678E-1,1.2334763E-1,6.84E0,2.964E1,1.49E0,2E-2,3.24E0,-3.576972E-2,2.791882E-2,9.277402E-2,-3.707553E-2,-1.1711093E-2,6.081615E-2,3.3249717E-2,-5.191865E-2],"split_indices":[237,948,1634,119,1039,175,988,0,0,0,0,0,0,0,0],"split_type":[0,0,0,0,0,0,0,0,0,0,0,0,0,0,0],"sum_hessian":[5.224363E3,3.0546433E3,2.1697195E3,2.8527383E3,2.0190504E2,1.5546702E3,6.1504944E2,2.6069478E3,2.457906E2,1.3997655E2,6.1928493E1,4.991977E2,1.0554724E3,1.1978282E2,4.9526666E2],"tree_param":{"num_deleted":"0","num_feature":"1998","num_nodes":"15","size_leaf_vector":"1"}},{"base_weights":[-1.3858278E-1,-3.0845574E-1,2.722651E-1,-3.7886605E-1,3.8977206E-2,4.5048663E-1,-2.0324747E-1,-5.723112E-2,-3.4994536E-4,8.815861E-2,-1.4327768E-2,6.767161E-2,-5.5760477E-2,-4.732479E-2,2.4064261E-2],"categories":[],"categories_nodes":[],"categories_segments":[],"categories_sizes":[],"default_left":[0,0,0,0,0,1,0,0,0,0,0,0,0,0,0],"id":56,"left_children":[1,3,5,7,9,11,13,-1,-1,-1,-1,-1,-1,-1,-1],"loss_changes":[3.2260004E2,8.000992E1,1.1481992E2,4.800644E1,4.9806328E1,4.5596207E1,2.1203724E1,0E0,0E0,0E0,0E0,0E0,0E0,0E0,0E0],"parents":[2147483647,0,0,1,1,2,2,3,3,4,4,5,5,6,6],"right_children":[2,4,6,8,10,12,14,-1,-1,-1,-1,-1,-1,-1,-1],"split_conditions":[5.4263544E-1,1.5228564E1,4.7430655E-1,1.3897714E-1,2.4E1,2.757E1,2.4E0,-5.723112E-2,-3.4994536E-4,8.815861E-2,-1.4327768E-2,6.767161E-2,-5.5760477E-2,-4.732479E-2,2.4064261E-2],"split_indices":[565,502,33,976,67,1570,600,0,0,0,0,0,0,0,0],"split_type":[0,0,0,0,0,0,0,0,0,0,0,0,0,0,0],"sum_hessian":[4.6175176E3,3.267181E3,1.3503367E3,2.7164683E3,5.5071277E2,9.8229004E2,3.6804666E2,2.4149534E3,3.015148E2,1.03685936E2,4.4702686E2,9.264673E2,5.582276E1,2.6502643E2,1.03020226E2],"tree_param":{"num_deleted":"0","num_feature":"1998","num_nodes":"15","size_leaf_vector":"1"}},{"base_weights":[-1.6727081E-1,-6.2256902E-2,-3.7575585E-1,-1.4244603E-1,2.1025226E-1,-2.56074E-1,-4.5362967E-1,-1.1050435E-2,-5.3494584E-2,9.2115E-2,6.01703E-3,-1.592816E-2,-5.097183E-2,-6.5251E-2,-4.6959527E-2],"categories":[],"categories_nodes":[],"categories_segments":[],"categories_sizes":[],"default_left":[0,0,0,1,1,1,0,0,0,0,0,0,0,0,0],"id":57,"left_children":[1,3,5,7,9,11,13,-1,-1,-1,-1,-1,-1,-1,-1],"loss_changes":[9.842902E1,6.548953E1,1.3786194E1,3.5554646E1,5.351844E1,1.0046661E1,2.6504822E0,0E0,0E0,0E0,0E0,0E0,0E0,0E0,0E0],"parents":[2147483647,0,0,1,1,2,2,3,3,4,4,5,5,6,6],"right_children":[2,4,6,8,10,12,14,-1,-1,-1,-1,-1,-1,-1,-1],"split_conditions":[1.0648024E-1,1.46394E1,1.16595715E-1,9.63E0,2.2E-1,1.406E1,4.838915E0,-1.1050435E-2,-5.3494584E-2,9.2115E-2,6.01703E-3,-1.592816E-2,-5.097183E-2,-6.5251E-2,-4.6959527E-2],"split_indices":[948,4,1822,787,1706,523,534,0,0,0,0,0,0,0,0],"split_type":[0,0,0,0,0,0,0,0,0,0,0,0,0,0,0],"sum_hessian":[4.495892E3,2.991765E3,1.5041271E3,2.3123625E3,6.7940247E2,5.9658405E2,9.075431E2,1.8736421E3,4.3872043E2,1.737528E2,5.0564963E2,2.8381885E2,3.1276517E2,6.891348E2,2.1840826E2],"tree_param":{"num_deleted":"0","num_feature":"1998","num_nodes":"15","size_leaf_vector":"1"}},{"base_weights":[-1.707958E-2,-1.845144E-1,2.2782196E-1,-7.6578416E-2,-4.0152246E-1,-1.3259287E-1,3.5183564E-1,4.987423E-3,-4.7920786E-2,-4.2715754E-2,-6.399533E-2,-3.3412542E-2,1.1585279E-2,5.9194583E-2,-3.1508006E-2],"categories":[],"categories_nodes":[],"categories_segments":[],"categories_sizes":[],"default_left":[0,0,0,0,0,0,0,0,0,0,0,0,0,0,0],"id":58,"left_children":[1,3,5,7,9,11,13,-1,-1,-1,-1,-1,-1,-1,-1],"loss_changes":[2.250049E2,7.6267525E1,9.969574E1,6.938207E1,6.428543E0,1.4563333E1,8.633812E1,0E0,0E0,0E0,0E0,0E0,0E0,0E0,0E0],"parents":[2147483647,0,0,1,1,2,2,3,3,4,4,5,5,6,6],"right_children":[2,4,6,8,10,12,14,-1,-1,-1,-1,-1,-1,-1,-1],"split_conditions":[8.769237E0,1.09078504E-1,8.953536E0,1.3778999E1,1.3318731E-1,3.921155E1,6.2812023E0,4.987423E-3,-4.7920786E-2,-4.2715754E-2,-6.399533E-2,-3.3412542E-2,1.1585279E-2,5.9194583E-2,-3.1508006E-2],"split_indices":[94,1120,4,1685,1473,632,9,0,0,0,0,0,0,0,0],"split_type":[0,0,0,0,0,0,0,0,0,0,0,0,0,0,0],"sum_hessian":[5.4828433E3,3.2567783E3,2.226065E3,2.1769465E3,1.079832E3,5.698341E2,1.656231E3,1.5495721E3,6.2737427E2,5.1422144E2,5.6561053E2,3.7220367E2,1.9763043E2,1.4393195E3,2.169115E2],"tree_param":{"num_deleted":"0","num_feature":"1998","num_nodes":"15","size_leaf_vector":"1"}},{"base_weights":[1.473678E-1,3.0099195E-1,8.685396E-3,2.4391663E-1,7.418139E-1,4.2704585E-1,-3.4338836E-2,5.732349E-2,1.6789712E-2,1.18660726E-1,3.2359943E-2,1.0652999E-1,2.7564432E-2,9.401435E-2,-6.9225538E-3],"categories":[],"categories_nodes":[],"categories_segments":[],"categories_sizes":[],"default_left":[0,0,0,0,0,0,0,0,0,0,0,0,0,0,0],"id":59,"left_children":[1,3,5,7,9,11,13,-1,-1,-1,-1,-1,-1,-1,-1],"loss_changes":[1.5067163E2,8.402792E1,6.697615E1,6.449695E1,2.6640472E1,2.779916E1,4.2581203E1,0E0,0E0,0E0,0E0,0E0,0E0,0E0,0E0],"parents":[2147483647,0,0,1,1,2,2,3,3,4,4,5,5,6,6],"right_children":[2,4,6,8,10,12,14,-1,-1,-1,-1,-1,-1,-1,-1],"split_conditions":[3.045954E-1,2.6E-1,9.1767496E-1,3.0400846E0,8.8240705E-2,1.0948664E1,1.564506E-1,5.732349E-2,1.6789712E-2,1.18660726E-1,3.2359943E-2,1.0652999E-1,2.7564432E-2,9.401435E-2,-6.9225538E-3],"split_indices":[1,71,189,189,329,78,226,0,0,0,0,0,0,0,0],"split_type":[0,0,0,0,0,0,0,0,0,0,0,0,0,0,0],"sum_hessian":[7.0702275E3,3.3532026E3,3.7170247E3,2.9718076E3,3.813952E2,3.4480292E2,3.372222E3,1.1704716E3,1.8013359E3,2.9633514E2,8.5060074E1,1.2815854E2,2.1664438E2,7.510245E1,3.2971194E3],"tree_param":{"num_deleted":"0","num_feature":"1998","num_nodes":"15","size_leaf_vector":"1"}},{"base_weights":[1.0652391E-1,-1.062765E-1,3.0804464E-1,6.208458E-2,-2.3802604E-1,3.6517613E-2,4.3466127E-1,5.621816E-2,-1.3018106E-2,-4.910881E-2,-1.631703E-2,3.532204E-2,-2.5370257E-2,3.549399E-2,8.5083164E-2],"categories":[],"categories_nodes":[],"categories_segments":[],"categories_sizes":[],"default_left":[0,0,1,0,1,0,0,0,0,0,0,0,0,0,0],"id":60,"left_children":[1,3,5,7,9,11,13,-1,-1,-1,-1,-1,-1,-1,-1],"loss_changes":[2.7890002E2,7.021661E1,1.1479599E2,7.88208E1,2.6272705E1,5.4373425E1,7.670535E1,0E0,0E0,0E0,0E0,0E0,0E0,0E0,0E0],"parents":[2147483647,0,0,1,1,2,2,3,3,4,4,5,5,6,6],"right_children":[2,4,6,8,10,12,14,-1,-1,-1,-1,-1,-1,-1,-1],"split_conditions":[4.3943477E0,1.3089103E0,5.76E0,2E-2,1.67E0,1.4E-1,2.7158085E-2,5.621816E-2,-1.3018106E-2,-4.910881E-2,-1.631703E-2,3.532204E-2,-2.5370257E-2,3.549399E-2,8.5083164E-2],"split_indices":[108,700,507,426,455,1840,570,0,0,0,0,0,0,0,0],"split_type":[0,0,0,0,0,0,0,0,0,0,0,0,0,0,0],"sum_hessian":[6.4998027E3,3.1619246E3,3.337878E3,1.3886001E3,1.7733243E3,1.0623948E3,2.2754834E3,4.2735684E2,9.612433E2,8.4550073E2,9.278236E2,5.2983325E2,5.325615E2,1.2261061E3,1.0493772E3],"tree_param":{"num_deleted":"0","num_feature":"1998","num_nodes":"15","size_leaf_vector":"1"}},{"base_weights":[-5.090085E-2,-1.9532008E-1,9.777864E-2,-2.6649973E-1,-5.602072E-3,2.3011327E-1,-2.6680866E-1,-4.5822203E-2,-3.001533E-3,-1.1946228E-2,6.5064065E-2,-2.8805314E-2,4.9473137E-2,-7.7579444E-4,-4.9162906E-2],"categories":[],"categories_nodes":[],"categories_segments":[],"categories_sizes":[],"default_left":[0,0,0,0,0,0,0,0,0,0,0,0,0,0,0],"id":61,"left_children":[1,3,5,7,9,11,13,-1,-1,-1,-1,-1,-1,-1,-1],"loss_changes":[1.1094473E2,3.5387505E1,1.2299099E2,3.4610428E1,2.934173E1,1.1479745E2,1.7539482E1,0E0,0E0,0E0,0E0,0E0,0E0,0E0,0E0],"parents":[2147483647,0,0,1,1,2,2,3,3,4,4,5,5,6,6],"right_children":[2,4,6,8,10,12,14,-1,-1,-1,-1,-1,-1,-1,-1],"split_conditions":[1.03697695E-1,1.11607656E-1,1.0111666E0,3.6E-1,1.2088393E-1,6.4696753E-3,7.7E-1,-4.5822203E-2,-3.001533E-3,-1.1946228E-2,6.5064065E-2,-2.8805314E-2,4.9473137E-2,-7.7579444E-4,-4.9162906E-2],"split_indices":[1717,31,1383,231,1727,1283,1860,0,0,0,0,0,0,0,0],"split_type":[0,0,0,0,0,0,0,0,0,0,0,0,0,0,0],"sum_hessian":[5.1627964E3,2.6185732E3,2.5442231E3,1.9035184E3,7.150549E2,1.8672631E3,6.769601E2,1.4582229E3,4.4529544E2,6.12645E2,1.02409836E2,4.42063E2,1.4252E3,1.8672734E2,4.902328E2],"tree_param":{"num_deleted":"0","num_feature":"1998","num_nodes":"15","size_leaf_vector":"1"}},{"base_weights":[-1.3159747E-1,-2.915538E-1,2.9538137E-1,-4.096298E-1,-5.352993E-2,-1.1137096E-1,5.090375E-1,-6.1147664E-2,-2.5651446E-2,-3.313006E-2,2.3697555E-2,-5.202741E-2,4.492137E-2,-2.8516896E-2,7.552096E-2],"categories":[],"categories_nodes":[],"categories_segments":[],"categories_sizes":[],"default_left":[0,0,0,0,0,1,0,0,0,0,0,0,0,0,0],"id":62,"left_children":[1,3,5,7,9,11,13,-1,-1,-1,-1,-1,-1,-1,-1],"loss_changes":[3.079251E2,9.210678E1,1.0693328E2,2.153363E1,4.8423634E1,5.2499264E1,3.097998E1,0E0,0E0,0E0,0E0,0E0,0E0,0E0,0E0],"parents":[2147483647,0,0,1,1,2,2,3,3,4,4,5,5,6,6],"right_children":[2,4,6,8,10,12,14,-1,-1,-1,-1,-1,-1,-1,-1],"split_conditions":[1.2372902E-1,1.2263267E-1,1.0994549E-1,2.76E0,5.772628E-1,3.13E0,2.1686065E0,-6.1147664E-2,-2.5651446E-2,-3.313006E-2,2.3697555E-2,-5.202741E-2,4.492137E-2,-2.8516896E-2,7.552096E-2],"split_indices":[225,990,442,406,1881,406,114,0,0,0,0,0,0,0,0],"split_type":[0,0,0,0,0,0,0,0,0,0,0,0,0,0,0],"sum_hessian":[4.5036367E3,3.2767712E3,1.2268656E3,2.1892073E3,1.0875638E3,4.2286633E2,8.039992E2,1.8116758E3,3.775315E2,5.911324E2,4.9643155E2,2.6140427E2,1.6146208E2,5.443501E1,7.495642E2],"tree_param":{"num_deleted":"0","num_feature":"1998","num_nodes":"15","size_leaf_vector":"1"}},{"base_weights":[-1.6588938E-1,-7.588126E-2,-3.8732532E-1,9.8682866E-2,-1.9649199E-1,-2.2719406E-1,-4.4739142E-1,-3.386744E-3,6.5925285E-2,-1.5266852E-2,-4.8959706E-2,-1.2298267E-2,-4.8410945E-2,-6.339621E-2,-4.1044597E-2],"categories":[],"categories_nodes":[],"categories_segments":[],"categories_sizes":[],"default_left":[0,0,0,0,0,0,0,0,0,0,0,0,0,0,0],"id":63,"left_children":[1,3,5,7,9,11,13,-1,-1,-1,-1,-1,-1,-1,-1],"loss_changes":[8.783274E1,6.611549E1,1.2032639E1,6.2335617E1,2.5734352E1,6.2791233E0,2.8730316E0,0E0,0E0,0E0,0E0,0E0,0E0,0E0,0E0],"parents":[2147483647,0,0,1,1,2,2,3,3,4,4,5,5,6,6],"right_children":[2,4,6,8,10,12,14,-1,-1,-1,-1,-1,-1,-1,-1],"split_conditions":[1.1437583E-1,1.24135256E-1,1.07443884E-1,5.3841263E-1,3.57E0,2.072E1,5.7939525E0,-3.386744E-3,6.5925285E-2,-1.5266852E-2,-4.8959706E-2,-1.2298267E-2,-4.8410945E-2,-6.339621E-2,-4.1044597E-2],"split_indices":[1822,367,1522,46,1206,1152,534,0,0,0,0,0,0,0,0],"split_type":[0,0,0,0,0,0,0,0,0,0,0,0,0,0,0],"sum_hessian":[4.4078647E3,3.1360574E3,1.2718076E3,1.281579E3,1.8544784E3,3.4976535E2,9.220423E2,9.7525616E2,3.0632278E2,1.2435796E3,6.108988E2,1.7493478E2,1.7483058E2,7.8313104E2,1.3891125E2],"tree_param":{"num_deleted":"0","num_feature":"1998","num_nodes":"15","size_leaf_vector":"1"}},{"base_weights":[-2.500874E-2,-2.3503847E-1,1.599686E-1,-1.2816533E-1,-4.2515284E-1,2.6248243E-1,-2.7091676E-1,-2.6720413E-3,-5.2182373E-2,7.115536E-2,-5.9147585E-2,4.9340345E-2,-1.5615757E-2,-4.1454542E-2,9.699261E-2],"categories":[],"categories_nodes":[],"categories_segments":[],"categories_sizes":[],"default_left":[0,0,0,0,0,0,0,0,0,0,0,0,0,0,0],"id":64,"left_children":[1,3,5,7,9,11,13,-1,-1,-1,-1,-1,-1,-1,-1],"loss_changes":[2.1151762E2,5.1681076E1,1.2803204E2,4.6031067E1,1.3545868E1,9.277313E1,2.1235558E1,0E0,0E0,0E0,0E0,0E0,0E0,0E0,0E0],"parents":[2147483647,0,0,1,1,2,2,3,3,4,4,5,5,6,6],"right_children":[2,4,6,8,10,12,14,-1,-1,-1,-1,-1,-1,-1,-1],"split_conditions":[2.0245047E1,1.0204E1,1.283743E-1,1.17435075E-1,4.29E0,6E0,1.7785099E0,-2.6720413E-3,-5.2182373E-2,7.115536E-2,-5.9147585E-2,4.9340345E-2,-1.5615757E-2,-4.1454542E-2,9.699261E-2],"split_indices":[757,1863,31,499,818,242,1170,0,0,0,0,0,0,0,0],"split_type":[0,0,0,0,0,0,0,0,0,0,0,0,0,0,0],"sum_hessian":[5.440085E3,2.5472546E3,2.8928306E3,1.6329375E3,9.143171E2,2.337545E3,5.5528546E2,1.1545576E3,4.783798E2,1.2902539E1,9.0141455E2,1.8316118E3,5.0593317E2,5.365119E2,1.8773577E1],"tree_param":{"num_deleted":"0","num_feature":"1998","num_nodes":"15","size_leaf_vector":"1"}},{"base_weights":[1.3353014E-1,2.7235875E-1,-1.0752246E-2,6.941708E-1,2.1936896E-1,3.4882212E-1,-4.9200796E-2,7.6352224E-2,1.3926531E-1,4.9271952E-2,1.2030408E-2,1.4023792E-2,9.0826035E-2,-3.4506995E-2,4.1890526E-3],"categories":[],"categories_nodes":[],"categories_segments":[],"categories_sizes":[],"default_left":[0,0,0,0,0,0,0,0,0,0,0,0,0,0,0],"id":65,"left_children":[1,3,5,7,9,11,13,-1,-1,-1,-1,-1,-1,-1,-1],"loss_changes":[1.4237196E2,8.063248E1,4.8250362E1,1.6110016E1,6.1509888E1,2.679372E1,5.2595078E1,0E0,0E0,0E0,0E0,0E0,0E0,0E0,0E0],"parents":[2147483647,0,0,1,1,2,2,3,3,4,4,5,5,6,6],"right_children":[2,4,6,8,10,12,14,-1,-1,-1,-1,-1,-1,-1,-1],"split_conditions":[3.1605688E-1,6.739779E-2,6.762001E-2,8.471E1,7.861285E0,8.6700004E-1,3.4E1,7.6352224E-2,1.3926531E-1,4.9271952E-2,1.2030408E-2,1.4023792E-2,9.0826035E-2,-3.4506995E-2,4.1890526E-3],"split_indices":[6,101,62,1254,61,1163,48,0,0,0,0,0,0,0,0],"split_type":[0,0,0,0,0,0,0,0,0,0,0,0,0,0,0],"sum_hessian":[7.1052583E3,3.6200818E3,3.4851763E3,4.0107803E2,3.2190037E3,3.3496774E2,3.1502085E3,2.9724634E2,1.0383169E2,1.5068536E3,1.7121501E3,1.9328864E2,1.416791E2,8.7805383E2,2.2721548E3],"tree_param":{"num_deleted":"0","num_feature":"1998","num_nodes":"15","size_leaf_vector":"1"}},{"base_weights":[9.519771E-2,-1.3099515E-1,2.7498898E-1,2.1606721E-2,-3.0330962E-1,1.21623814E-1,4.425839E-1,-2.4340356E-2,2.4409615E-2,-5.330863E-2,-1.0095637E-2,4.191744E-2,-1.1017484E-2,2.9735405E-2,7.714342E-2],"categories":[],"categories_nodes":[],"categories_segments":[],"categories_sizes":[],"default_left":[0,0,0,0,1,0,0,0,0,0,0,0,0,0,0],"id":66,"left_children":[1,3,5,7,9,11,13,-1,-1,-1,-1,-1,-1,-1,-1],"loss_changes":[2.6484726E2,7.586896E1,9.313553E1,4.9753616E1,2.8785988E1,7.354762E1,5.010846E1,0E0,0E0,0E0,0E0,0E0,0E0,0E0,0E0],"parents":[2147483647,0,0,1,1,2,2,3,3,4,4,5,5,6,6],"right_children":[2,4,6,8,10,12,14,-1,-1,-1,-1,-1,-1,-1,-1],"split_conditions":[2.6196406E0,6.8E-1,8.46559E0,3.6257718E-2,1.022E1,1.25E0,5.133886E-1,-2.4340356E-2,2.4409615E-2,-5.330863E-2,-1.0095637E-2,4.191744E-2,-1.1017484E-2,2.9735405E-2,7.714342E-2],"split_indices":[3,317,135,16,566,554,943,0,0,0,0,0,0,0,0],"split_type":[0,0,0,0,0,0,0,0,0,0,0,0,0,0,0],"sum_hessian":[6.508401E3,2.882526E3,3.625875E3,1.529713E3,1.352813E3,1.8952742E3,1.7306008E3,6.746886E2,8.550244E2,9.590639E2,3.9374905E2,9.7916693E2,9.1610724E2,6.4670575E2,1.083895E3],"tree_param":{"num_deleted":"0","num_feature":"1998","num_nodes":"15","size_leaf_vector":"1"}},{"base_weights":[-4.375881E-2,-1.8102588E-1,1.0919446E-1,-2.521908E-1,1.15199335E-1,2.9085642E-1,-1.415275E-1,-3.9243527E-2,1.5828729E-2,-2.5078127E-2,4.3568987E-2,-2.4871278E-4,7.332675E-2,-2.5767423E-2,8.059147E-2],"categories":[],"categories_nodes":[],"categories_segments":[],"categories_sizes":[],"default_left":[0,0,0,0,1,0,1,0,0,0,0,0,0,0,0],"id":67,"left_children":[1,3,5,7,9,11,13,-1,-1,-1,-1,-1,-1,-1,-1],"loss_changes":[1.0714251E2,5.6754105E1,1.1004112E2,3.1996017E1,3.3073402E1,1.0441175E2,3.8025124E1,0E0,0E0,0E0,0E0,0E0,0E0,0E0,0E0],"parents":[2147483647,0,0,1,1,2,2,3,3,4,4,5,5,6,6],"right_children":[2,4,6,8,10,12,14,-1,-1,-1,-1,-1,-1,-1,-1],"split_conditions":[1.1700479E-1,1.1454125E-1,4.512E1,1.1746668E-1,5E-1,1.18E0,5.999E1,-3.9243527E-2,1.5828729E-2,-2.5078127E-2,4.3568987E-2,-2.4871278E-4,7.332675E-2,-2.5767423E-2,8.059147E-2],"split_indices":[1450,530,1254,646,64,240,312,0,0,0,0,0,0,0,0],"split_type":[0,0,0,0,0,0,0,0,0,0,0,0,0,0,0],"sum_hessian":[5.0989077E3,2.6870396E3,2.4118682E3,2.16681E3,5.202295E2,1.3983429E3,1.0135252E3,1.9568522E3,2.0995793E2,2.129337E2,3.072958E2,6.5162396E2,7.4671893E2,9.5076154E2,6.276366E1],"tree_param":{"num_deleted":"0","num_feature":"1998","num_nodes":"15","size_leaf_vector":"1"}},{"base_weights":[-1.19186416E-1,-2.8067228E-1,2.9930055E-1,-3.8641733E-1,-4.2038307E-2,4.5842415E-1,-1.6441385E-1,-6.0604077E-2,-2.6414333E-2,7.921141E-3,-5.7521313E-2,-3.5962574E-2,6.968019E-2,-4.9973033E-2,3.873661E-2],"categories":[],"categories_nodes":[],"categories_segments":[],"categories_sizes":[],"default_left":[0,0,0,0,1,0,0,0,0,0,0,0,0,0,0],"id":68,"left_children":[1,3,5,7,9,11,13,-1,-1,-1,-1,-1,-1,-1,-1],"loss_changes":[2.981188E2,8.026671E1,9.081878E1,2.6802734E1,3.8226154E1,4.016777E1,2.9845936E1,0E0,0E0,0E0,0E0,0E0,0E0,0E0,0E0],"parents":[2147483647,0,0,1,1,2,2,3,3,4,4,5,5,6,6],"right_children":[2,4,6,8,10,12,14,-1,-1,-1,-1,-1,-1,-1,-1],"split_conditions":[1.1483759E-1,1.191016E-1,4.872263E-1,1.3E0,4.771E1,2.5868223E0,2.05E0,-6.0604077E-2,-2.6414333E-2,7.921141E-3,-5.7521313E-2,-3.5962574E-2,6.968019E-2,-4.9973033E-2,3.873661E-2],"split_indices":[16,1708,33,1412,1263,133,950,0,0,0,0,0,0,0,0],"split_type":[0,0,0,0,0,0,0,0,0,0,0,0,0,0,0],"sum_hessian":[4.406485E3,3.1800735E3,1.2264113E3,2.2026665E3,9.7740717E2,9.131043E2,3.1330695E2,1.6421167E3,5.605497E2,7.7617334E2,2.0123386E2,6.912501E1,8.439793E2,2.151259E2,9.818104E1],"tree_param":{"num_deleted":"0","num_feature":"1998","num_nodes":"15","size_leaf_vector":"1"}},{"base_weights":[-1.5252542E-1,-5.7898607E-2,-3.6164695E-1,4.495606E-2,-2.7437183E-1,-1.4724307E-1,-4.048E-1,1.2128797E-3,8.268748E-2,-2.3759004E-2,-5.8821287E-2,7.864619E-3,-3.939251E-2,-4.022338E-2,-6.016021E-2],"categories":[],"categories_nodes":[],"categories_segments":[],"categories_sizes":[],"default_left":[0,0,0,0,1,0,0,0,0,0,0,0,0,0,0],"id":69,"left_children":[1,3,5,7,9,11,13,-1,-1,-1,-1,-1,-1,-1,-1],"loss_changes":[8.523568E1,6.614676E1,1.22883E1,4.1275085E1,1.5078476E1,6.8877187E0,4.7488556E0,0E0,0E0,0E0,0E0,0E0,0E0,0E0,0E0],"parents":[2147483647,0,0,1,1,2,2,3,3,4,4,5,5,6,6],"right_children":[2,4,6,8,10,12,14,-1,-1,-1,-1,-1,-1,-1,-1],"split_conditions":[1.1384582E-1,1.8E0,1.03982545E-1,5.438E1,4.24E0,1.56E1,1.5729533E-1,1.2128797E-3,8.268748E-2,-2.3759004E-2,-5.8821287E-2,7.864619E-3,-3.939251E-2,-4.022338E-2,-6.016021E-2],"split_indices":[284,122,1266,219,1652,516,81,0,0,0,0,0,0,0,0],"split_type":[0,0,0,0,0,0,0,0,0,0,0,0,0,0,0],"sum_hessian":[4.307459E3,2.967467E3,1.3399918E3,2.0128221E3,9.5464484E2,2.2612044E2,1.1138713E3,1.8955858E3,1.1723631E2,6.002883E2,3.5435657E2,9.433259E1,1.3178784E2,3.2635498E2,7.8751636E2],"tree_param":{"num_deleted":"0","num_feature":"1998","num_nodes":"15","size_leaf_vector":"1"}},{"base_weights":[-2.0035153E-2,1.0420286E-1,-2.9202926E-1,-1.7763044E-1,2.7009764E-1,-3.3540857E-1,7.090963E-2,-1.0651238E-2,-5.9800833E-2,5.028773E-2,-1.4056492E-2,1.1805061E-1,-4.5949694E-2,6.086257E-2,-4.750037E-2],"categories":[],"categories_nodes":[],"categories_segments":[],"categories_sizes":[],"default_left":[0,0,0,0,0,0,0,0,0,0,0,0,0,0,0],"id":70,"left_children":[1,3,5,7,9,11,13,-1,-1,-1,-1,-1,-1,-1,-1],"loss_changes":[1.8201717E2,1.7299185E2,2.6641129E1,3.5987926E1,9.085603E1,1.2477982E1,2.985718E1,0E0,0E0,0E0,0E0,0E0,0E0,0E0,0E0],"parents":[2147483647,0,0,1,1,2,2,3,3,4,4,5,5,6,6],"right_children":[2,4,6,8,10,12,14,-1,-1,-1,-1,-1,-1,-1,-1],"split_conditions":[1.3440001E0,3.619E1,6.176986E-1,5.703E0,1.2469085E0,2.81E0,1.633E1,-1.0651238E-2,-5.9800833E-2,5.028773E-2,-1.4056492E-2,1.1805061E-1,-4.5949694E-2,6.086257E-2,-4.750037E-2],"split_indices":[1825,123,598,604,325,1386,1157,0,0,0,0,0,0,0,0],"split_type":[0,0,0,0,0,0,0,0,0,0,0,0,0,0,0],"sum_hessian":[5.382263E3,3.6955833E3,1.6866797E3,1.3692518E3,2.3263315E3,1.506754E3,1.7992575E2,1.0029118E3,3.6634E2,1.8207412E3,5.0559024E2,6.419033E0,1.500335E3,9.461772E1,8.530802E1],"tree_param":{"num_deleted":"0","num_feature":"1998","num_nodes":"15","size_leaf_vector":"1"}},{"base_weights":[1.244933E-1,2.5772014E-1,-7.5482074E-3,6.7955136E-1,2.1644892E-1,2.3546994E-1,-7.183995E-2,1.1318519E-1,5.8218732E-2,3.9964743E-2,3.324449E-3,1.4261579E-2,6.596666E-2,-1.2773748E-2,5.9205744E-2],"categories":[],"categories_nodes":[],"categories_segments":[],"categories_sizes":[],"default_left":[0,0,0,0,0,0,1,0,0,0,0,0,0,0,0],"id":71,"left_children":[1,3,5,7,9,11,13,-1,-1,-1,-1,-1,-1,-1,-1],"loss_changes":[1.2574558E2,6.1623367E1,5.615862E1,1.1865799E1,5.029236E1,2.4724384E1,3.3868694E1,0E0,0E0,0E0,0E0,0E0,0E0,0E0,0E0],"parents":[2147483647,0,0,1,1,2,2,3,3,4,4,5,5,6,6],"right_children":[2,4,6,8,10,12,14,-1,-1,-1,-1,-1,-1,-1,-1],"split_conditions":[3.1326964E-1,6.398112E-2,9.927678E-1,-2.533567E-1,8.519352E0,2E-2,1.0243001E1,1.1318519E-1,5.8218732E-2,3.9964743E-2,3.324449E-3,1.4261579E-2,6.596666E-2,-1.2773748E-2,5.9205744E-2],"split_indices":[1,349,619,1869,8,70,206,0,0,0,0,0,0,0,0],"split_type":[0,0,0,0,0,0,0,0,0,0,0,0,0,0,0],"sum_hessian":[7.145683E3,3.555846E3,3.5898374E3,3.1389536E2,3.2419504E3,7.4981165E2,2.8400256E3,1.8596272E2,1.2793263E2,2.2791382E3,9.628124E2,4.9970496E2,2.501067E2,2.7187036E3,1.21322105E2],"tree_param":{"num_deleted":"0","num_feature":"1998","num_nodes":"15","size_leaf_vector":"1"}},{"base_weights":[8.873292E-2,-1.2402797E-1,2.5344536E-1,1.20433355E-2,-3.0979383E-1,-1.732127E-1,3.1557223E-1,-2.0378185E-2,3.8227785E-2,-5.63928E-2,-2.0433323E-2,4.824151E-2,-4.054267E-2,7.463542E-2,2.9662631E-2],"categories":[],"categories_nodes":[],"categories_segments":[],"categories_sizes":[],"default_left":[0,0,1,0,1,0,0,0,0,0,0,0,0,0,0],"id":72,"left_children":[1,3,5,7,9,11,13,-1,-1,-1,-1,-1,-1,-1,-1],"loss_changes":[2.2735226E2,7.1580765E1,9.703604E1,7.303879E1,2.0594887E1,3.2090504E1,7.23421E1,0E0,0E0,0E0,0E0,0E0,0E0,0E0,0E0],"parents":[2147483647,0,0,1,1,2,2,3,3,4,4,5,5,6,6],"right_children":[2,4,6,8,10,12,14,-1,-1,-1,-1,-1,-1,-1,-1],"split_conditions":[2.6196406E0,2.1E-1,4.84E0,6.493007E-2,1.343E1,5.1E-1,9.535324E-2,-2.0378185E-2,3.8227785E-2,-5.63928E-2,-2.0433323E-2,4.824151E-2,-4.054267E-2,7.463542E-2,2.9662631E-2],"split_indices":[3,238,1569,937,1029,73,433,0,0,0,0,0,0,0,0],"split_type":[0,0,0,0,0,0,0,0,0,0,0,0,0,0,0],"sum_hessian":[6.483429E3,2.8293123E3,3.654117E3,1.6342659E3,1.1950464E3,4.6396127E2,3.1901558E3,1.0214699E3,6.1279596E2,7.026029E2,4.9244345E2,8.9444016E1,3.7451727E2,9.016473E2,2.2885083E3],"tree_param":{"num_deleted":"0","num_feature":"1998","num_nodes":"15","size_leaf_vector":"1"}},{"base_weights":[-4.5269374E-2,-2.4522121E-1,5.4084316E-2,-2.8772983E-1,2.2047476E-1,-2.2758314E-1,1.4520529E-1,-4.7119536E-2,-1.0014966E-2,-2.7180905E-2,7.990086E-2,6.385253E-2,-4.092914E-2,3.797435E-2,-1.6296431E-2],"categories":[],"categories_nodes":[],"categories_segments":[],"categories_sizes":[],"default_left":[0,0,1,1,1,0,0,0,0,0,0,0,0,0,0],"id":73,"left_children":[1,3,5,7,9,11,13,-1,-1,-1,-1,-1,-1,-1,-1],"loss_changes":[1.0047168E2,3.3370255E1,8.680886E1,2.0566841E1,2.2653887E1,4.5011665E1,9.355284E1,0E0,0E0,0E0,0E0,0E0,0E0,0E0,0E0],"parents":[2147483647,0,0,1,1,2,2,3,3,4,4,5,5,6,6],"right_children":[2,4,6,8,10,12,14,-1,-1,-1,-1,-1,-1,-1,-1],"split_conditions":[1.015978E-1,1.1769866E-1,1.49E0,3.6E-1,7.9E-1,3.79E0,9.962E1,-4.7119536E-2,-1.0014966E-2,-2.7180905E-2,7.990086E-2,6.385253E-2,-4.092914E-2,3.797435E-2,-1.6296431E-2],"split_indices":[413,182,119,231,227,344,691,0,0,0,0,0,0,0,0],"split_type":[0,0,0,0,0,0,0,0,0,0,0,0,0,0,0],"sum_hessian":[5.053853E3,1.6765532E3,3.3772998E3,1.5370802E3,1.3947299E2,8.2471985E2,2.55258E3,1.1861119E3,3.5096832E2,6.594143E1,7.353156E1,8.0273315E1,7.4444653E2,1.6843613E3,8.6821875E2],